"","V1","V2","V3","V4","V5","V6","V7","V8","V9","V10","V11","V12","V13","V14","V15","V16","V17","V18","V19","V20","V21","V22","V23","V24","V25","V26","V27","V28","V29","V30","V31","V32","V33","V34","V35","V36","V37","V38","V39","V40","V41","V42","V43","V44","V45","V46","V47","V48","V49","V50","V51","V52","V53","V54","V55","V56","V57","V58","V59","V60","V61","V62","V63","V64","V65","V66","V67","V68","V69","V70","V71","V72","V73","V74","V75","V76","V77","V78","V79","V80","V81","V82","V83","V84","V85","V86","V87","V88","V89","V90","V91","V92","V93","V94","V95","V96","V97","V98","V99","V100","V101","V102","V103","V104","V105","V106","V107","V108","V109","V110","V111","V112","V113","V114","V115","V116","V117","V118","V119","V120","V121","V122","V123","V124","V125","V126","V127","V128","V129","V130","V131","V132","V133","V134","V135","V136","V137","V138","V139","V140","V141","V142","V143","V144","V145","V146","V147","V148","V149","V150","V151","V152","V153","V154","V155","V156","V157","V158","V159","V160","V161","V162","V163","V164","V165","V166","V167","V168","V169","V170","V171","V172","V173","V174","V175","V176","V177","V178","V179","V180","V181","V182","V183","V184","V185","V186","V187","V188","V189","V190","V191","V192","V193","V194","V195","V196","V197","V198","V199","V200","V201","V202","V203","V204","V205","V206","V207","V208","V209","V210","V211","V212","V213","V214","V215","V216","V217","V218","V219","V220","V221","V222","V223","V224","V225","V226","V227","V228","V229","V230","V231","V232","V233","V234","V235","V236","V237","V238","V239","V240","V241","V242","V243","V244","V245","V246","V247","V248","V249","V250","V251","V252","V253","V254","V255","V256","V257","V258","V259","V260","V261","V262","V263","V264","V265","V266","V267","V268","V269","V270","V271","V272","V273","V274","V275","V276","V277","V278","V279","V280","V281","V282","V283","V284","V285","V286","V287","V288","V289","V290","V291","V292","V293","V294","V295","V296","V297","V298","V299","V300"
"Complexity",-0.071973821470245,-0.144742988331389,-0.00966092078179697,-0.0926190805134189,0.0942339145857643,-0.050373698949825,-0.157100038506418,-0.0571519967327888,0.043796907957993,-1.22204437572929,0.130244526254376,0.12480386697783,-0.00906417036172696,0.110095676779463,-0.00525635239206535,-0.11866927537923,-0.0565889707117853,0.0759251869194866,0.0753261855309218,-0.0957566701283547,-0.120851496149358,0.00960150291715285,-0.26935942042007,0.175951589031505,-0.0398990129521587,0.251319799299883,0.00396068961493583,0.0863485953325554,-0.0422093525087514,0.168888614002334,0.192452056476079,-0.0438783477246208,-0.200019300583431,0.0818331034305717,-0.293935863477246,0.408168095682614,0.339661608751459,0.223888276662777,0.0675743617269545,-0.30739337117853,0.142729675612602,0.00357050233372229,0.0364773984830805,-0.146292121586931,-0.0631128366394399,0.342889229871645,-0.0689586126021003,0.33037543873979,-0.0606510676779463,-0.00782333185530923,0.191673995332555,-0.0440168875145857,0.114599217036173,-0.224401084947491,-0.158536868144691,0.0207332753792299,-0.049515991831972,-0.157241693582264,0.046135260210035,0.19933868378063,0.338827008168028,-0.0471454116686114,0.358511925320887,-0.0800477114352392,-0.0536271446907818,0.33867230991832,0.131469333488915,0.163190334889148,-0.194258057526254,0.0509650536756126,-0.266127144690782,0.0848860858809801,0.00945653045507585,-0.0719902144807468,-0.101366329054842,-0.0268881516919487,-0.116330312368728,0.10539829638273,0.0781967946324387,0.0330433106184364,0.0104059288214702,-0.307816011668611,-0.017203284714119,-0.22965852042007,-0.0104254981213535,0.279351462077013,0.5799116126021,-0.00164727537922988,-0.046498666798133,0.170872254072345,-0.291067750291715,0.16821675495916,-0.127242663943991,0.24186403033839,0.221549181446908,-0.0285211621936989,-0.0990772485414236,0.113928805134189,-0.0344277077946324,-0.219289893815636,-0.00111387222870479,-0.0552295386231038,0.0565898308518086,-0.0306317197199533,0.0136534798133022,-0.406410648774796,-0.0387872788798133,0.125036500583431,-0.00764503232205368,-0.133794381563594,0.00762138894982497,-0.278382702450408,-0.0602232158693115,-0.0945345308051342,-0.206219597432905,-0.0866488086347725,0.0416600313885648,0.0117689276546091,-0.0442753437572929,0.378410343757293,0.321537772345391,0.485583392765461,0.00948060676779464,0.150322452392065,0.106020635939323,-0.0849434679113186,-0.0196317512252042,0.0407482392065344,0.0202844067677946,-0.0137160746791132,-0.133435855309218,-0.247539427304551,0.0286396091015169,-0.251235505250875,-0.262358533255543,-0.0360402882147024,-0.0643408792298716,0.0195838410735123,-0.197329119719953,0.187648425670945,0.0997899392065344,-0.193985775262544,0.429709770828471,-0.144568962893816,0.340337991131855,0.186952093582264,0.0719565295215869,0.0163779568261377,-0.168987463243874,0.0812416315052509,0.0819219894982497,-0.012281008168028,-0.0605117426021003,0.0598311890315052,-0.0550813197199533,-0.0634645563827304,-0.166898129288215,0.215092665157526,0.179580569428238,-0.142177588098016,0.0478599500583431,0.140432734072345,0.239401761960327,-0.168427631855309,0.0253511215869311,-0.392530972532089,-0.1377978168028,0.18133751201867,0.0102153892648775,0.460139686114352,0.0323676330221704,-0.323593095682614,-0.636251050175029,-0.0578615558926488,0.338575845974329,-0.101943381563594,0.0789726905484247,-0.119431424504084,-0.0498244438973162,-0.263595852975496,0.170585550408401,-0.320094971995333,-0.0445265880980163,0.0458308697782964,-0.185103931155193,-0.00558175962660444,-0.131574588681447,-0.0827543535589265,-0.312485828004667,-0.178148123687281,-0.205208276546091,-0.0527845529754959,0.132725773628938,0.0898778389731622,-0.0501020758459743,0.0845990701866978,-0.332966664224037,0.307589155192532,-0.20343882042007,-0.21003376546091,-0.0874169925320887,-0.135118869311552,-0.134170829521587,0.158074188448075,0.0189443628938156,0.0573580012835473,-0.195490581096849,0.133604353558926,0.0159689988331389,0.0267707421236873,0.286999758459743,-0.072555243873979,-0.210670852975496,0.0165007708284714,-0.132754294049008,-0.116654256709452,-0.399229756126021,0.0480454564760793,0.02845079873979,-0.0555111516919487,-0.507196975495916,0.0592321306884481,-0.229212348891482,0.144304733722287,-0.0228018278879813,-0.0698416709451575,-0.322695294049008,0.203962523920653,-0.202264731155193,-0.141466559393232,0.051551663243874,0.232523911318553,-0.0963242128004667,-0.189963216452742,0.0371061715285881,0.207667619603267,0.179532161026838,-0.21805975495916,-0.400901025670945,0.0315570698949825,0.297205079346558,0.39098608168028,0.255107037339557,-0.203475917152859,-0.874060616102684,0.131749522648775,-0.324893206534422,0.174324366394399,-0.0189775036172695,0.187847348074679,0.0801536365227538,-0.0249643045507585,0.0445912215869311,-0.185170646441074,0.146112182147024,-0.0142123624270712,0.0541456687094516,-0.0510792252042007,-0.0564738856476079,0.153093636172695,-0.0555847094515753,-0.0353423920653442,0.135187427654609,-0.246031496849475,4.12730455075856e-05,-0.00206199883313886,-0.373554565927655,0.117757137689615,0.245811215869312,-0.0685019381563594,0.0297002143290548,0.0327299451458576,0.329329274445741,-0.0773329743290548,0.0603849814469078,0.11582670361727,-0.986073602450408,-0.0401806312718786,0.433116772112019,-0.095393357176196,0.00889810606767795,-0.166210904317386,0.131184240373396,-0.0625732641773629,0.478134022053676,-0.0390512767794632,-0.256611747491249,0.157535321586931,0.0462143220536756,-0.130013571295216,-0.054784194865811,0.00772854784130689,-0.262962880746791,0.21314995495916,0.207341945624271,0.254424240373396,-0.046646446907818,0.0124150093348891,0.0159487911318553,-0.172967678646441
"Adversity",0.118352252631579,0.0470861732057416,0.0581066759330143,0.05070532,0.190574293779904,-0.254157893779904,-0.18597424076555,-0.0707506729186603,0.039573217492823,-0.430626539712919,-0.0983863569377991,-0.16524737569378,-0.105339266985646,-0.0573964947368421,-0.172743615311005,-0.388915580861244,-0.171717262009569,-0.0106141160382775,0.122780955023923,0.0871997130143541,-0.0202353699521531,-0.0635884583732058,-0.131086835559809,0.0438908670813397,-0.12561428076555,-0.040650928708134,0.1264042784689,-0.334685576555024,-0.118191607368421,0.314022115215311,0.0393921016267943,-0.0984401607655502,-0.199555666028708,-0.342206350239235,-0.314620879425837,0.459309222009569,-0.161827684019139,0.00294025712918661,-0.210344286124402,-0.0624664468899522,0.0142584200956938,0.135486709090909,0.0972644765550239,-0.661147095980861,0.124564452057416,0.293788610526316,-0.0463026658373206,0.0508984028708134,0.145363084210526,-0.106851698564593,0.120061034258373,0.055019833492823,0.0550394899521531,-0.233672177607656,-0.0944551272727273,0.115417808325359,-0.180367267942584,-0.311617594641148,0.0413649329186603,0.333709360095694,0.223669091866029,-0.358903593301435,-0.00961061263157895,0.147912446889952,0.0682909129186603,0.181030275980861,0.209671294066986,0.197901524114833,0.264052135885167,-0.0281692832535885,-0.383560653971292,0.0363762052631579,-0.0430914633492823,0.233566269799043,0.21314899138756,-0.176618931100478,-0.15791308076555,0.0943896564593301,-0.0305996183732057,0.0408217779904306,-0.296700402870813,-0.260222471196172,0.359082241148325,-0.119065923444976,-0.240170373722488,0.0395721464114833,0.267452031004785,0.053773235215311,0.0657275923444976,0.440846105971292,-0.177962794641148,0.0852515561722488,-0.0253864076555024,-0.192091302105263,-0.0492130937799043,-0.188975554066986,-0.0985514395215311,0.0210992459330144,-0.0323009129186603,0.0810932431578947,-0.176179686315789,0.215421110717703,-0.0328513873492823,-0.156519387368421,-0.0118219110047847,-0.402243422966507,-0.0271052141626794,0.12285396,0.0629935978947369,0.0139847837320574,-0.0666708107177034,0.275412178947368,-0.31602156076555,-0.0330301716746412,-0.0796166032535885,-0.289574827751196,0.208857532822967,-0.182057194258373,-0.0667682572248804,0.276629233301435,0.0699145974162679,-0.293631161148325,-0.0506608200956938,0.357470233971292,0.463412199043062,0.144673902392345,0.125663429090909,-0.130469604784689,-0.037337579138756,-0.145720739330144,0.473549708133971,0.15719226708134,-0.223392216746411,-0.15146806507177,-0.341412288842105,-0.0850677694736842,-0.0160196411483254,-0.130323433684211,0.0983083320574163,0.16356898354067,-0.0688963737799043,0.0299799261244019,0.0464572844019139,0.241748145550239,-0.282189688995215,-0.143524286411483,0.00069679224880382,0.273961105263158,0.0908297741626794,0.154627745645933,-0.426961329186603,-0.19584548708134,-0.231698495521531,0.106969170334928,0.140377116746411,-0.412187550124402,0.0166610262966507,-0.0109684449760766,-0.0504656799043062,0.280960775119617,-0.148367653588517,-0.237868611291866,0.167633928708134,-0.141956126794258,0.119002300669856,-0.120292954708134,-0.129569276555024,-0.212340810143541,0.0835880118660287,-0.0242830795215311,0.0814186918660287,0.203364707177034,-0.511146013397129,0.0304499684210526,-0.184635184688995,-0.0235539157894737,-0.127204059521531,0.0466193423923445,0.0174978029760765,0.218185523444976,0.116453208803828,0.0718863215311005,-0.30054565645933,-0.112892938947368,-0.0178704753110048,0.219433616267943,0.438700378947368,-0.165407902325359,-0.234803423732057,-0.195933284114833,-0.202246790430622,-0.343560981052632,0.392975502392345,-0.261273992344498,-0.0150514076555024,-0.150885267751196,-0.325142555100479,0.0944815177033493,0.236869563253589,-0.303954460287081,-0.0444159984880383,-0.0454673933014354,0.0589981921531101,0.0710692397129187,0.23119121722488,0.282725508229665,-0.00602276555023925,-0.0418467301435407,0.29059505645933,-0.184102733684211,-0.254403607655502,0.0541722995215311,0.024538954708134,-0.0368044721531101,0.0348286975119617,-0.244119891866029,-0.0934214089952153,0.0530588488421053,0.297541245454545,0.02995055215311,0.00919901119617225,0.0450106698564593,-0.304577970334928,0.414978627368421,-0.0550433607655502,0.112554548325359,0.131527357799043,-0.0860689330143541,-0.30355254277512,-0.0720281590430622,0.100367055311005,0.00466045990430623,0.076717590631579,-0.386730718660287,0.0120642229665072,0.0501447876555024,-0.0273492133971292,-0.0175427196172249,0.142758709665072,0.0541795533971292,0.297475806698565,0.159855370334928,-0.13353105645933,-0.0612460448803828,-0.141931746411483,0.0185051926315789,-0.00291829894736844,0.358792117511962,0.0580697035406699,0.00656474832535886,-0.0183808220095694,-0.107025107559809,0.00567814,-0.213879353110048,0.0524343100478469,0.0783544373205742,0.0566373243100479,-0.174712937799043,0.0720880593301435,0.345590399425837,-0.0963468535885168,-0.197027926315789,-0.0826770673684211,-0.224206678373206,0.441877275023923,0.433793199043062,-0.108922758851675,-0.302484669090909,0.264184510047847,0.0330597043062201,0.157605721148325,0.159124055004785,0.0326149911004785,0.235174355023923,0.337608716555024,0.0988438458373206,-0.461619565167464,0.0607215348325359,-0.0814531923444976,0.114406069856459,0.293971946411483,-0.00334878832535885,0.487705914449761,0.0757516610526316,-0.0405610370334928,-0.411366599043062,-0.00798760114832536,0.365763762296651,-0.294895067942584,-0.304559298277512,0.090691461722488,0.248201545741627,0.0511705607655502,-0.0420462133971292,0.212992778277512,-0.360051400956938,-0.0314271052631579,0.162268749282297,-0.269452676555024,-0.255734038277512
"Positive",-0.0951074561734213,-0.126656118755891,0.0199859820923657,-0.0715008211121583,0.0473036593779453,-0.0468403883129123,0.0889231988689915,0.0241073883129124,-0.01953072799246,-0.362626494816211,0.0846032902921772,-0.11189254269557,-0.128075850141376,0.0750128341187559,-0.235825127049953,-0.0479039783223374,-0.0254264825636192,-0.149894534024505,0.103557590951932,0.108556978322337,0.0936546721960415,0.372684493873704,-0.186290823506126,0.228980785344015,0.176303918001885,-0.0100675461828464,-0.037120767200754,-0.100729199434496,0.140606034307257,0.0393091149858624,-0.0942201402450518,0.122017991517436,-0.399493920829406,-0.156124484618285,-0.291420978322337,0.401616154571159,0.0916083355325165,0.0586534301602262,-0.0581427521206409,-0.0549251393025448,0.0942788303487276,-0.0575850899151744,0.132888066918002,-0.258826233741753,0.0443210231856739,0.277051690386428,0.151047414326107,0.0960107766258247,0.244058324599434,0.0170704003770028,0.00606700885956644,0.0681980772855797,0.0468715664467484,0.0361376822808671,-0.138131310838831,0.126619068143261,0.00899668897266728,0.174591845428841,0.207927468614515,-0.0363704314797361,0.0921296324222432,0.0311217779453346,0.237699599622997,0.0766321541941565,0.118451047125353,0.143657590951932,-0.0136056489161169,0.114375064373233,0.262244869557022,0.206650165881244,-0.331113073515551,-0.158072445617342,-0.0671691807728558,0.127749063053723,0.259027745523091,0.08050910933082,0.0767022884071631,-0.0285383204524034,-0.0191186074458058,0.00274274326107446,-0.0424768365692743,0.209031195098963,0.304249992459943,-0.264966060320452,0.10010478539114,0.29925485202639,-0.00265250763430725,-0.0150635679547597,0.0591412670348728,0.133697438218662,-0.0335072931196984,-0.165415161545712,-0.0015308972667295,-0.170106503016023,-0.141751631479736,-0.136062980207352,0.238101131762488,0.0338423100848256,-0.117249580490104,0.189116760226202,0.376667103487276,-0.0060085426013195,0.0328032614797361,0.154141978133836,0.0272510861451461,-0.0183321919886899,-0.0186183832233742,0.0590089605089538,-0.102657795664467,-0.245462114043355,0.117719535805844,0.323198363807729,0.218018626767201,-0.059484479736098,0.10001316927427,0.00238958246936852,0.239181933930254,0.140694744957587,0.24696811065033,-0.0419774652214892,0.00167907295004714,-0.0345192094250707,-0.0659479519321395,0.373509150801131,0.0814858294062206,-0.147036191894439,0.0909808784165881,0.226714463713478,-0.0634878013195099,-0.0204336948162111,0.256515158435438,-0.0644470028275212,0.139056081432611,0.0561357879359095,-0.360484600226202,-0.0589614341187559,0.239601854382658,-0.05320100933082,0.0784862144203581,0.170286513666353,-0.025248098397738,0.0603694231856739,0.0534199264844486,-0.0716155432610745,0.0976541950989633,-0.366032567766258,-0.213521227144204,0.124697624316682,-0.203873574929312,0.107987088407163,-0.299534614514609,-0.0933184712535344,-0.0433277155042413,0.0885827675777568,0.0644421526861452,0.0170213420358153,-0.0505839060320452,0.00312500821866164,0.0258070203581527,0.05274544533459,0.0536480290292177,-0.028505096795476,0.374115865221489,-0.0863510593779453,0.0782683031102733,0.194829142318567,-0.0246707360980207,-0.0313814559849199,0.257609276154571,-0.106504240716305,-0.0403285815268615,-0.267518312912347,-0.425425295004713,0.320115520075401,-0.0074755466540999,-0.188913941564562,0.0378407026390198,0.102466169651272,-0.133268974637135,0.00494252968897267,0.0267673249764373,-0.272581812441093,0.126348848256362,-0.0201309406220547,-0.00196339877474081,0.0588359236569274,0.34541835061263,-0.125430265570217,0.00846840546654099,-0.0838381395852969,-0.153028496701225,-0.377549575117813,-0.00863650047125352,0.0798661998114986,-0.266011147031103,-0.0548355055607917,-0.345406370405278,0.00687466258246937,-0.0352768600377003,0.118950238454288,0.508752426767201,-0.0242501988689915,0.0252033677662582,0.00470229971724788,0.205214641847314,-0.123301920546654,0.049951294533459,0.170737385862394,-0.232725413760603,-0.027959203864279,-0.229511975494816,-0.0645340953817154,-0.06837883600377,0.119008574363808,0.0427333079170594,0.0412471222431668,-0.0313493487276155,-0.131269489255419,0.224227154269557,0.424861939679548,-0.0838963213949105,-0.0516265183788878,0.0061163534401508,0.163559567389255,-0.275506504712535,-0.0335725381715363,0.140957144769086,0.0741398605089538,-0.0838168269557022,0.00386046804901037,-0.230844496512724,-0.070631864938737,0.00253024497643732,-0.264031009519321,-0.00985142884071631,0.218823936475024,0.0314483159283695,-0.329548138548539,-0.278064200659755,0.117498375117813,-0.0881070706880302,0.137543057492931,-0.0537472723845429,0.135838779453346,-0.180370689915174,-0.0989125730442978,-0.207836338360038,0.0142942356267672,0.0769395345900094,0.0122097636192271,0.0775801261074458,-0.2862597600377,0.0782767760603205,-0.127742084825636,0.0946658052780396,0.15659152139491,0.169526823295005,-0.315391290292177,-0.0827190301602262,-0.029701369462771,0.0148357455230914,-0.127047053722903,0.149871115268615,0.0279516984919887,0.052526994533459,0.296126970782281,-0.152872825636192,-0.0177299783223374,0.427097206409048,0.112003512723845,0.187690533411876,-0.212426535485391,0.236511723656927,-0.0146340094250707,0.0835390645617342,-0.0901473277097078,-0.645716198868992,0.0244350440150801,0.108521877474081,-0.0968111,-0.00317383873704053,0.226193155513666,-0.0612041545711593,-0.118006965523091,-0.143574474081056,-0.0220016559849199,0.0864445438265787,-0.0229220701225259,0.0624124071630537,-0.163288035532517,-0.167065105937795,0.113899029406221,-0.0234378784165881,-0.118462447879359,0.0259849144203582,-0.438311381715363,-0.0969195975494816,0.080182,0.0658361564561734,0.0334820563619227
"Typicality",-0.353804795990566,0.114310096698113,0.221046268867925,0.151133613679245,-0.0918214941037736,0.0328521910377359,-0.0550224054245283,0.232406860613208,-0.0386160672169811,-1.26812556721698,-0.170910801886792,0.247387169811321,-0.177637794811321,0.104860119103774,-0.0686503313679245,-0.459979516863208,0.101119174646226,0.00609109751179246,-0.0857716049528302,-0.328215682783019,-0.0883302570754717,-0.217067594339623,0.0354945518867924,0.261034014268868,0.0577772869103773,0.149426922169811,0.302745661556604,-0.108477455188679,0.214836309669811,0.0116211648584906,-0.133857017570755,0.16265004245283,-0.198263333254717,-0.0707859599056604,-0.653738911556604,0.141907678066038,-0.132883240919811,-0.031233054245283,-0.185836193396226,0.324767918867924,-0.0184088375,0.131711576533019,-0.0733740925707547,-0.284129828066038,0.0253681922169811,0.238078859669811,0.0280706370283019,0.14604704245283,0.0568959799528302,0.0688767452830189,0.0283210891509434,-0.0434342816037736,0.111723054245283,0.169419655188679,0.0189420576650943,0.125767033018868,0.0956380530660377,-0.193908703537736,0.097314589740566,0.00554153891509434,0.194594673349057,-0.167758759433962,0.39905189740566,-0.22542007370283,-0.319209574528302,-0.0452466132075472,0.195676748938679,0.0823403938679245,-0.00576195872641508,0.149399192216981,-0.00451918396226415,0.144437014150943,0.0171490435141509,0.049404512134434,-0.0315419233490566,0.144222063679245,-0.0907609301886792,0.166142869103774,0.0658684831367924,0.040053325235849,-0.103115125471698,0.0819533636792453,-0.0171744398584906,0.0674276391509434,0.175203371816038,0.00370337853773586,0.113621975707547,-0.310801469457547,0.0744424824174528,0.233494989858491,-0.0720382984669811,0.234598425825472,-0.0238493466981132,-0.0371786423349057,0.0529976639150943,-0.0749525341981132,0.0230075188679245,0.125841122641509,0.0308208462264151,-0.253359039150943,-0.142381597287736,0.239439257193396,0.129982459504717,-0.170981237617925,-0.0662623018867924,0.106307886910377,-0.0884940330188679,0.0201897983490566,-0.133037568632075,0.165504063679245,-0.193155722535377,-0.032625716745283,-0.0309414422169811,0.112199627476415,-0.032731366509434,-0.0100318431603774,0.185296395283019,-0.11982654115566,-0.197104878773585,0.145835150943396,0.0765541155660377,-0.0853798879716981,0.160781106132075,0.484031307783019,-0.0546565153301887,0.225442807783019,0.147531443160377,0.253761643867924,0.0616951839622641,0.107820767570755,-0.0226457134433962,0.0849978938679245,-0.0370793293632076,-0.0754548808962264,0.223779833915094,-0.00431181061320755,0.0994772694575472,-0.0817978330188679,0.0522215943396226,0.101567824292453,0.0455291185141509,0.136670340566038,-0.17254570754717,-0.120868758254717,-0.259701538915094,0.317399184551887,0.0351503318396226,0.083288472995283,-0.233701135613208,0.282493101415094,-0.0557567099056604,-0.211838711084906,0.157193326650943,-0.0113477389150943,0.327485029481132,-0.0557779580188679,-0.231677058207547,-0.0680599752358491,0.218486314150943,-0.108784215801887,0.027257862735849,-0.103118484669811,0.00439323820754716,-0.220989799528302,-0.00377954646226414,0.263161462264151,-0.0578020265330189,-0.00510703726415094,0.1223905625,0.0827036580188679,0.122944655353774,0.230110899764151,-0.493810716981132,0.544424356132075,-0.132759702830189,-0.312936548349057,0.106328125943396,0.0120205129716981,-0.0498855649646226,0.0092273408018868,0.10901912629717,-0.0620664103773585,-0.115571221698113,0.0879541580188679,-0.136126659080189,-0.00446143042452829,0.454331381485849,0.176281035377358,-0.32063283254717,-0.0275432252358491,-0.0379303620283019,0.0941454733490566,0.266881338443396,-0.131346948113208,0.0362637641509434,-0.0692354168632075,-0.217836149009434,-0.300861023584906,-0.28496024009434,-0.392299849056604,0.352738431804245,0.113939630896226,0.21443044115566,0.222626058962264,0.211905009433962,0.0569562912735849,-0.227566344339623,-0.0456207141509434,-0.018889170990566,-0.0618836007075472,-0.12451027240566,-0.161242471933962,0.13766851817217,0.0814114976415094,0.0128974316037736,0.000180931721698111,0.0500463349056604,-0.0738661543396226,0.14406860495283,-0.0470817216981132,-0.0757967074292453,0.0319831356132076,-0.226849424528302,0.152599130542453,-0.0713490966981132,0.100944415566038,0.00926787028301886,0.0504011179245283,0.303759910377358,-0.0577443844339623,-0.13860785365566,0.237144984316038,0.0862568193396226,-0.264187507311321,0.124122826650943,0.150264399882075,-0.0598051943396226,0.047553758254717,-0.0290145837264151,0.400136438679245,-0.0295119115566038,-0.104709413915094,0.281350825471698,0.156974768867925,-0.591311351415094,-0.242164015884434,-0.00195763620283019,0.120217729834906,-0.150409530424528,0.00268399280660377,0.121816874174528,-0.0332748047169811,0.145258597877358,-0.13744883254717,-0.258724913915094,0.220740137971698,-0.0968632075471698,0.0585989174528302,0.0846063313679245,0.0247748880896227,-0.222251984669811,0.0378756691037736,0.0737704431603774,-0.0774637070754717,-0.100831736556604,0.0048546049528302,0.117128773584906,-0.218174466981132,0.232228231132075,0.25442406875,0.117333258584906,0.0402382983490566,-0.0110412692216981,-0.181507561332547,-0.0737140235849056,0.296026593396226,-1.46322683012972,0.133238491981132,0.243911427004717,0.0565741658018868,-0.0261000198113208,-0.188142691981132,0.103167158962264,0.0973066811320755,0.106844985849057,0.221844214386792,0.102360412028302,-0.0570332129716981,-0.0859391650943396,-0.0484489810141509,0.000280718160377359,0.18831323365566,-0.327393688679245,0.0797324492924528,0.21112497995283,0.0770749174528302,-0.106194330188679,-0.203205452830189,0.0726912365566038,-0.0192335554245283
"Importance",-0.0771350948379352,0.0523424729891957,0.144821258163265,-0.359293471788716,0.337491754777911,0.0124464141656663,-0.136431238655462,0.0442609798319328,-0.12897649637455,-1.54157347058824,0.0441114657863145,-0.0201134909963986,-0.201697015606242,0.106585667466987,-0.192700200960384,-0.104782595078031,-0.221432056662665,-0.249756920768307,-0.178647054021609,0.0195311788715486,-0.0980496292917167,0.0374538787515006,0.0372064893397359,0.1044047469988,-0.0618580416566627,-0.023886031212485,-0.162965045618247,-0.196719677070828,-0.0726139027611044,0.123948286434574,-0.0597775410564226,0.143102138055222,-0.238271376470588,-0.107987019339736,-0.39990712244898,0.398050593037215,0.295766770708283,0.286975379351741,0.0176696758703481,-0.209738236494598,0.0725682211284514,0.0219259398559424,-0.124615181272509,-0.232837420168067,-0.195768956302521,0.0366279921968787,-3.53805522208893e-05,0.269804885954382,-0.220670081632653,0.10022857394958,0.160868738535414,-0.0618860842737095,0.0789456590636255,-0.258035900720288,-0.295326166386555,0.20129258667467,0.147965629051621,-0.0895404136854742,0.13756717214886,0.233919761584634,0.179015944777911,-0.0868860348139256,0.029271581032413,-0.0372715162064826,0.174536442016807,0.313332422929172,-0.000636445666266499,0.119465541056423,-0.114200969867947,0.444584813205282,-0.341062495798319,0.0510604849939976,-0.0875484740696278,0.181478895078031,0.016905274909964,-0.10375881272509,-0.0549631121248499,0.193566521008403,-0.0808588420168067,0.0986911817527011,-0.266038372388956,-0.123080333733493,0.155581950780312,-0.249940424969988,0.0310233983673469,-0.016147843937575,0.0440462274909964,-0.0195119852340936,-0.226267199815126,-0.0721665294717887,-0.13266606542617,0.176519925210084,-0.086743393757503,-0.121017702280912,0.175490795918367,0.0632160364945978,0.0370136657863145,-0.323351543817527,0.320745391980792,0.121354931572629,-0.0795591644657863,-0.00866544909963986,0.0308116107923169,-0.0947484645858343,0.131998541896759,0.206315228091236,-0.17169485210084,0.0407972637454982,-0.0283400264105642,-0.0929448391356543,-0.000138527010804318,-0.0424178146458583,0.0148499135654262,-0.0491358551020408,-0.148195872989196,-0.0339525270108043,0.350743411764706,-0.040819275030012,0.2522971272509,0.278713324129652,0.0441009870348139,0.0695472273709484,0.172685546218487,0.0364375138055222,-0.136855493397359,0.0356339759903962,0.345472332052821,0.0684309459783914,0.0597437038415366,-0.178354986794718,0.288412547779112,-0.117678674669868,-0.121793972989196,-0.0443446290516206,-0.47890782545018,-0.278905680672269,0.195118360444178,-0.0946258764705882,0.20864318787515,0.173537757743097,-0.102582586794718,-0.0224193426170468,0.187743765906363,-0.261503254261705,-0.162993236014406,0.0630279653061225,0.119791394717887,0.134239248979592,-0.454783031092437,0.111475926770708,-0.51062418727491,-0.261087732292917,-0.155075942869148,-0.133389578631453,0.0150838007202881,-0.149592454993998,0.00693930444177671,0.101850923157263,-0.0419537956782713,0.113542431572629,-0.0903515183673469,-0.0508024370948379,0.355289995198079,-0.146071103241297,0.184113938535414,-0.0569069171668668,0.0430028901560624,-0.0757532792316927,0.236757411884754,0.599229470828331,0.476742624033613,-0.291456773109244,-0.474250869147659,0.320726836854742,0.082008037214886,-0.29979724969988,-0.0923884639855942,-0.0273072782713085,-0.226594321728691,-0.184211678271309,-0.00714425174069628,-0.369778332533013,-0.0682770864345738,-0.112765274909964,-0.0419043325330132,0.163272852340936,0.130864891956783,0.0425720156902761,-0.289318812965186,-0.0800663540216087,-0.100465445378151,0.481091934333733,0.232063720048019,-0.0244259831932773,0.269398804321729,-0.170503359123649,0.0812771129411765,-0.0725360036014406,0.0307844943577431,-0.276317897959184,-0.0345164893757503,0.0673729195678271,-0.214537904681873,-0.048426549819928,0.0379488895558223,0.119868017887155,0.128710856542617,-0.144650726530612,0.0424458763505402,0.216178049219688,0.0678126254501801,-0.211408663145258,0.0550874962905162,0.224992402160864,0.153702481392557,-0.0971637791116447,-0.0645255308523409,0.281714954933974,0.31379364787515,0.173264951980792,-0.378910842376951,-0.215970004801921,-0.37957468667467,0.184703393637455,-0.0625497959183673,0.0426509099639856,-0.18483797454982,0.262642597238896,-0.105203185834334,0.0945563073229292,-0.086355456302521,0.123158709123649,0.247748333973589,0.200423542617047,-0.155845783913565,0.250946848739496,0.0750675138055222,-0.326511911164466,-0.220557602280912,0.249462207803121,0.0980210228091236,0.368336600240096,0.362295792316927,0.0196806642376951,-0.402242148859544,-0.0183045632412965,-0.110011284693878,0.251748333733493,-0.0222342086434574,0.101526574069628,0.0789132816326531,-0.326351507803121,-0.317758484993998,-0.264757254501801,-0.111571909963986,0.14051999939976,-0.123389283313325,-0.366377595438175,0.158240043217287,0.170079946458583,-0.0760293289315726,-0.196174179831933,-0.0378988785114046,-0.00586682785114046,-0.134353715486194,0.249397445378151,-0.0402695858343337,-0.0195588052821128,0.258780540696278,0.143340571068427,0.191296199603842,0.104703195066026,-0.187171006362545,0.0251511766026411,0.120843764945978,-0.0222294909963986,-1.33318916686675,0.245095447418968,0.422252191356543,-0.170538783913565,-0.241884485114046,0.0532171272509004,0.298658145258103,0.0725119772388955,0.159131425090036,-0.305980787515006,0.147054014645858,0.103942451620648,0.0199128343337335,-0.197242716806723,-0.0908805493397359,0.0139780863145258,-0.0602454007202881,0.0224567430972389,0.0986197709483794,0.178249829531813,-0.172108896758703,-0.537490527010804,-0.104255226890756,-0.0347570460984394
"Humor",0.196735237268518,-0.0629616770833333,0.00316065148148147,0.150829469675926,0.0609545364930556,0.160044998842593,0.0843126659722222,-0.0210982141203704,0.285176511574074,-0.167929746527778,0.0917147905092593,0.137970896296296,-0.00764042824074074,0.202321177083333,0.0790016071759259,0.152828487268518,0.0208784674768518,-0.0232785596412037,0.2342664375,0.362323633217593,0.339703850694444,0.634583155092593,-0.305417822083333,0.0264438375,-0.298844003587963,0.147880960648148,0.138597528935185,-0.278587154282407,0.0667209842592592,0.0370466988425926,-0.521029838310185,0.0897445150462963,-0.198418992708333,-0.191528347951389,-0.234717758101852,0.567182369212963,-0.074835365625,0.0486272615740741,-0.0633239872685185,0.250780315972222,0.0505181400462963,0.00787843599537038,0.057205759837963,-0.365584558912037,0.0567867690972222,0.0988422650462963,-0.0758133506944444,-0.337016920138889,0.0247755377314815,-0.109185081828704,0.092017894212963,0.0831556678240741,0.12044818287037,0.0311715356481481,-0.0507151268518519,0.206666420138889,-0.148714835648148,0.031556375462963,0.188394341782407,-0.25669067025463,0.316650565972222,-0.0586273574074074,0.0988915877314815,-0.0226151493055556,-0.22264312025463,0.0973240917824074,0.0472977739583333,0.16642955787037,0.25302340162037,0.0309755912037037,-0.278394473611111,0.0518529873842593,0.069990921875,0.0982804378125,0.171183015046296,-0.121812728009259,0.10264273900463,0.195676592592593,0.103332187731481,0.0046982167824074,0.0352919537037037,0.118519581018519,0.202447162037037,-0.159319768518519,0.11733573837963,0.383088914351852,-0.0131573333333333,0.157706471412037,0.33447337962963,0.352012834375,-0.314164679398148,0.302117145486111,-0.0416035671296296,-0.118512085648148,-0.187153311342593,0.15091359837963,0.036542384375,0.178302038194444,-0.046473077962963,-0.217638073263889,0.358919432175926,-0.175829041666667,0.169800275462963,0.245470572337963,-0.11468926087963,-0.113677389467593,-0.424556062037037,-0.00503453564814814,0.0877232083333333,0.0415525891203704,-0.138198430150463,0.0599817918981481,-0.216885818287037,0.0434048799768518,0.501220092361111,0.0558373715277778,-0.0631113862268518,0.161654784259259,0.0369716194444444,0.349153653935185,0.0821738912037037,-0.146648317824074,-0.0842132962962963,0.393230883680556,0.0355823159722222,-0.0478094159722222,0.0469618041666667,0.236243135416667,0.275314516319444,-0.0100978484953704,0.133584348726852,-0.135841771990741,-0.0883722291666667,0.150547953703704,-0.3841365875,-0.0272479141203704,0.329630440972222,-0.0976641157407407,-0.253630518518518,0.130742024074074,0.0601127502314815,0.0513648453703704,-0.138959069444444,-0.18583248912037,-0.0258749134259259,0.00532240856481481,-0.297838190740741,0.0258497459490741,0.121792303356481,0.0403216678240741,-0.46515078125,0.160248652777778,-0.229935815798611,0.0872153518518518,-0.137686008101852,-0.116377319918981,-0.0815363668981481,0.0640123768171296,-0.0695755686342593,0.248200836805556,0.114510895833333,-0.134867179976852,0.145527996527778,-0.313627069444444,-0.0336926675925926,-0.0790071273148148,-0.359284375578704,0.350737787615741,0.25936224537037,-0.477572646180556,0.160753073865741,-0.174892390046296,-0.4168863125,0.143580104513889,-0.181956709490741,-0.188348582175926,0.181609816435185,-0.22648193287037,-0.119653220636574,-0.171569966435185,0.113922638888889,-0.201020447916667,0.0785253680555555,-0.0128884571759259,0.108811443402778,-0.101813302083333,0.497132065972222,-0.566036696759259,0.183928809490741,-0.339506127314815,-0.288064509259259,-0.303202303240741,0.266437103009259,-0.0677035590277778,-0.178481449074074,0.265331118055556,-0.586408988611111,-0.0630900601851852,-0.134206131944444,-0.199241047453704,0.560701375,0.000529130787037034,0.178427198726852,0.0302296336805555,0.113724721064815,-0.0211757998842593,0.38640593287037,0.0147678157407407,-0.105074814814815,-0.135568834606481,-0.125855549768519,-0.0459471520833333,0.0340824071990741,0.126411616898148,-0.0226044873842593,0.0215355688657407,0.145985941782407,-0.0364129872685185,0.124491295717593,0.0787152002314815,-0.398923700231481,0.0955272592592593,-0.226241959490741,0.278349958564815,-0.171070153935185,-0.0979207865740741,0.163655079513889,-0.192611497106481,-0.184108354282407,0.0155673657407407,-0.0410895172453704,0.0232539545138889,-0.186421045138889,-0.536915168055556,0.199874327546296,0.189030702662037,0.0452081875,-0.131456550925926,-0.319070177777778,0.30561909375,0.41426503125,0.0217825520833333,-0.267661274305556,0.339634743055556,-0.29138449537037,-0.339515976851852,-0.173280302719907,0.0353683032407407,-0.0145465989583333,-0.117051288657407,0.0871006407407407,-0.399737213888889,-0.00948688518518518,-0.0763778460648148,0.202998367592593,0.216145265393518,0.397943601851852,-0.0239468518518519,-0.216390961805556,-0.0409384488425926,-0.0696810150462963,-0.290587978935185,-0.144654431597222,0.0392264732638889,-0.00595315185185185,-0.100137082175926,-0.0630345,-0.104122678240741,0.0295889583333333,0.467429778935185,0.480266007175926,-0.184065013715278,0.101033728009259,0.0588585115740741,0.0790238196759259,0.137197602199074,-0.241765712037037,-0.0206130844907407,-0.0964683993055555,-0.23930067662037,-0.0142591024305556,0.201604611342593,0.0741134606481482,-0.0876030184722222,-0.142582734953704,0.0728439884259259,-0.0370710895833333,0.044970712962963,-0.185368233796296,-0.205732761574074,-0.123900716666667,-0.105366243125,-0.0731953184027778,0.0806361076388889,0.122035732523148,-0.804539747685185,-0.109058293981481,0.0321305462962963,0.0903689601851852,0.0855906581018518
"Negative",0.024899624890447,-0.154395346187555,0.115858066047327,-0.0582363191936897,-0.0567368175021911,0.120296857142857,-0.14274278369851,0.0915422780017529,0.138275298860649,-0.298859498685364,-0.0193373689745837,0.0277903719544259,0.0557133382997371,0.134695368974584,0.0592409028921998,0.100898669763365,0.129481431288344,0.147370586722174,0.0757714005258545,0.091027298334794,0.413932161262051,0.285167815074496,-0.126042648361087,0.185232667221735,0.0688170866783523,0.122546132340053,0.211800609991236,-0.223143622962314,0.111804785276074,-0.0802307791411043,-0.527352793865031,0.0450056397896582,-0.153000939614373,-0.412424506573181,0.32027541630149,0.318110234881683,0.0937130898334794,-0.022290332427695,-0.0637855337423313,-0.0523207142857143,0.138298693952673,0.340291536371604,-0.074048583260298,-0.404874661787905,0.0487786003505697,0.20436236196319,-0.138144304995618,-0.121575133216477,0.202333160385627,-0.106253952673094,0.0550245905346188,0.0569565409290096,0.38551116739702,-0.00326412848378615,0.00224465854513585,-0.0369408019281332,-0.315248109553024,0.195857042944785,0.313881921822962,-0.167873651709027,0.066647226993865,-0.16385446520596,-0.0268955319894829,0.166527471516214,-0.160386365118317,0.182545580718668,0.191673254022787,-0.041939921121823,0.115160358194566,-0.074246354601227,-0.200752023663453,-0.0520171616126205,0.0914495486415425,-0.0724873545574058,0.230627202453988,-0.0972635731814198,0.0387807445223488,0.277546460122699,0.09121813514461,0.228609961700263,0.0545558063102542,-0.27642310254163,0.257088225241017,-0.0387437318141981,0.030427085617879,0.243879794040315,-0.0729309276950044,0.128853661524978,0.36938356704645,0.183975694092901,-0.456271531551271,0.0150072473269062,0.287070727432077,-0.0837249643295355,-0.058210101665206,0.134688451884312,0.127890933917616,0.17415216739702,0.263869202489045,0.0076207365468887,0.315544868010517,-0.242238190184049,0.0262550876424189,0.333308921560035,-0.0767534525854514,-0.145091477651183,-0.251345479579316,0.0101541517966696,0.242497999298861,0.131510784399649,0.118659288632778,0.147521976161262,-0.28787773006135,-0.186414231025416,0.351651499035933,0.146202151621385,0.251012177037686,-0.0193393342681858,-0.289327146187555,0.0794928597721297,0.186199085626643,-0.0531062865907099,-0.148406860210342,0.361158065731814,0.0803428764241893,-0.0335619439088519,-0.126475534618755,0.214016566170026,0.183596971253287,0.0285637442594216,0.356537149517967,0.143912085889571,-0.0195373638913234,0.12134895179667,-0.441763104469763,-0.191600500262927,0.163425374452235,-0.0065834375109553,-0.0238580156003506,0.29148924820333,-0.216017092462752,0.0205434180543383,-0.142649689745837,-0.00933921770376862,-0.167434365644172,-0.214481579929886,0.21861128659071,0.125720877563541,0.0402332586327783,-0.0873263444347064,-0.475930669588081,-0.0893641840490798,-0.356167086765995,-0.22074488080631,-0.00859420946538124,-0.105681525872042,-0.0739529090446976,0.208418669763365,-0.0634178885188431,0.114924169149869,0.186948657843997,0.0274290913234005,0.226768431200701,-0.180750344434706,0.0551022746713409,-0.0705609982471516,-0.180729212094654,0.0838273480280456,0.259999512708151,-0.388267649255039,0.312189602103418,-0.119432412795793,-0.159756059596845,0.0225929964943032,-0.426430393514461,-0.188303086765995,-0.15686371340929,0.0983079053461876,-0.212176081893076,-0.166899521472393,0.0605784925503944,-0.143178178790535,-0.0459699903593339,0.0203688921998247,0.0407743063102542,-0.156525223488168,0.508054522348817,-0.292920650306748,0.27840449167397,-0.111012531113059,-0.296686472392638,-0.490249708238387,0.293038936196319,-0.0924545153374233,0.0147809176161262,0.0951583715600351,-0.382432397896582,-0.0344553041191937,-0.0356086207712533,-0.213893008764242,0.100241203900088,-0.10105348115688,-0.132330841191937,-0.207522494303243,-0.0749317651183173,-0.014318856266433,0.0830597309377739,-0.0788565503943909,-0.0996337677475898,-0.136222205959684,-0.293137466257669,0.223231842243646,0.261458870850131,0.074213032427695,-0.130483144259422,-0.0360291288343558,0.348426471340929,-0.00755292823838738,-0.0161180683610868,0.138250660823839,-0.569895575898335,0.202661032427695,-0.135246789658195,0.28900854601227,-0.384226390885188,0.00858991402278702,-0.104071748290973,-0.207186978089395,0.0157017673970202,-0.140464357581069,0.0339934823838738,-0.257309959596845,0.0659049315600351,-0.307240558194566,-0.125796479404032,-0.0683560489044698,-0.0374903006134969,-0.123814281332165,-0.23431821051709,0.192702520595968,0.221111864154251,0.0622001700262927,-0.123760133216477,0.0374789682646801,-0.101068932515337,0.145619590210342,0.0865980568799299,0.0370617649430324,0.0155071191060473,0.031180493514461,-0.0339210368098159,0.0627291379491674,-0.130458573794917,-0.0292744627519719,0.451959876424189,0.251739851709027,0.00839214257668712,-0.303042352322524,-0.106293124452235,0.0154201639789658,-0.020057083260298,-0.0953384233128834,-0.166684398773006,0.0745332100788782,-0.0766946548641542,0.214579123575811,-0.145983011393514,-0.104938112883436,0.0912125982471516,0.289158483610868,0.357007929281332,-0.0421347581069237,0.090589489745837,0.500164627467134,0.0534816903593339,0.189499439964943,-0.12940163948291,0.0282304943032428,0.329389981682734,-0.00138456327782647,-0.103714112445223,-0.00616571691498685,-0.0678908688869413,0.170350818650307,-0.0124112059596845,-0.158083596494303,0.001868212971078,0.087705554601227,0.11159722173532,-0.118481423488168,-0.104818295530237,-0.0530248169237511,-0.208534067134093,0.144190251533742,0.140910617703769,-0.557873822962314,-0.00761626643295355,0.302388362839614,-0.121518510429448,0.0978913854513584
