"","V1","V2","V3","V4","V5","V6","V7","V8","V9","V10","V11","V12","V13","V14","V15","V16","V17","V18","V19","V20","V21","V22","V23","V24","V25","V26","V27","V28","V29","V30","V31","V32","V33","V34","V35","V36","V37","V38","V39","V40","V41","V42","V43","V44","V45","V46","V47","V48","V49","V50","V51","V52","V53","V54","V55","V56","V57","V58","V59","V60","V61","V62","V63","V64","V65","V66","V67","V68","V69","V70","V71","V72","V73","V74","V75","V76","V77","V78","V79","V80","V81","V82","V83","V84","V85","V86","V87","V88","V89","V90","V91","V92","V93","V94","V95","V96","V97","V98","V99","V100","V101","V102","V103","V104","V105","V106","V107","V108","V109","V110","V111","V112","V113","V114","V115","V116","V117","V118","V119","V120","V121","V122","V123","V124","V125","V126","V127","V128","V129","V130","V131","V132","V133","V134","V135","V136","V137","V138","V139","V140","V141","V142","V143","V144","V145","V146","V147","V148","V149","V150","V151","V152","V153","V154","V155","V156","V157","V158","V159","V160","V161","V162","V163","V164","V165","V166","V167","V168","V169","V170","V171","V172","V173","V174","V175","V176","V177","V178","V179","V180","V181","V182","V183","V184","V185","V186","V187","V188","V189","V190","V191","V192","V193","V194","V195","V196","V197","V198","V199","V200","V201","V202","V203","V204","V205","V206","V207","V208","V209","V210","V211","V212","V213","V214","V215","V216","V217","V218","V219","V220","V221","V222","V223","V224","V225","V226","V227","V228","V229","V230","V231","V232","V233","V234","V235","V236","V237","V238","V239","V240","V241","V242","V243","V244","V245","V246","V247","V248","V249","V250","V251","V252","V253","V254","V255","V256","V257","V258","V259","V260","V261","V262","V263","V264","V265","V266","V267","V268","V269","V270","V271","V272","V273","V274","V275","V276","V277","V278","V279","V280","V281","V282","V283","V284","V285","V286","V287","V288","V289","V290","V291","V292","V293","V294","V295","V296","V297","V298","V299","V300"
"Duty",-0.203003,0.224032333333333,-0.01107,-0.0655343333333333,-0.254357333333333,-0.125043333333333,0.0370663333333333,0.0882133333333333,-0.280963333333333,-1.57173333333333,0.0797663333333333,-0.2176785,-0.0409676666666667,-0.0333233333333333,-0.172269333333333,-0.143496666666667,0.102834333333333,-0.403741,-0.221438666666667,0.0623353333333333,-0.04346,-0.158893666666667,0.266402,-0.137113666666667,-0.45354,0.323226666666667,-0.149859,-0.05451194,0.103426,0.134823,0.415867,0.225763333333333,0.0221636666666667,-0.1350817,-0.75251,0.219883333333333,0.0249746666666667,0.0301386666666667,-0.0923833333333333,0.169341666666667,0.189240333333333,-0.334213333333333,0.215293333333333,-0.453273333333333,-0.06633,0.0486198,0.226623666666667,0.165487333333333,0.0369933333333333,-0.12026,0.49354,0.0927526666666666,0.00716333333333333,0.419763333333333,-0.30164,0.221365,-0.289649,0.234104333333333,-0.0700213333333333,0.173616666666667,0.12208,-0.114981,0.234996666666667,-0.0157353333333333,-0.337550333333333,-0.125453333333333,-0.0411133333333333,0.278326666666667,-0.0167128333333333,-0.130138266666667,-0.278256,-0.101543333333333,-0.0294866666666667,0.0920166666666667,-0.122050333333333,0.205369666666667,-0.138423,0.50512,0.216988466666667,-0.180751333333333,-0.135363333333333,0.107706666666667,-0.0238306666666667,-0.164770666666667,-0.0188750333333333,0.0683673333333333,0.131594666666667,0.336507333333333,-0.137727666666667,0.218153333333333,-0.164205,0.011243,0.132335333333333,-0.165947,-0.297895666666667,-0.518024266666667,-0.100953333333333,-0.39768,-0.0585963333333333,-0.166193333333333,-0.00957066666666667,0.310529666666667,-0.126743333333333,-0.287513333333333,0.191826666666667,-0.337126666666667,0.383446666666667,0.154153333333333,-0.0389978,-0.0705676666666667,0.341776,0.140473333333333,-0.459623333333333,-0.307030333333333,-0.2138617,-0.129813333333333,0.214309666666667,-0.27585,-0.0582766666666667,0.0445826666666667,-0.0245986666666667,0.185616,0.133269,-0.0447006666666667,0.0295516666666666,-0.279741,-0.16121,-0.196183333333333,0.0697203333333333,0.0775526666666667,0.34293,0.0859846666666667,0.0905933333333333,-0.1292,-0.32815,-0.248656666666667,-0.237334,-0.056181,0.223073333333333,-0.0793833333333333,-0.0272126666666667,0.442593333333333,0.0239596666666667,0.0428816666666667,-0.181659333333333,-0.0607263333333333,-0.0324666666666667,0.150497,0.155229333333333,0.09928,0.47171,-0.293884,0.323633666666667,-0.397486666666667,0.6226,-0.0521793333333333,-0.286888333333333,-0.130478,0.15209,0.0367533333333333,-0.16543,-0.119402666666667,0.173539,0.132081666666667,-0.0133479666666667,-0.0804933333333333,0.224444333333333,0.0371846666666667,0.146063333333333,0.58779,0.26537,-0.0850270666666667,-0.430998,0.037732,-0.144215,0.07427,-0.21434,-0.064544,-0.44898,-0.0965912666666667,-0.0635216666666667,0.332366666666667,-0.164657,-0.221043,-0.154949,0.169077633333333,-0.129136666666667,0.141190333333333,-0.006651,-0.23379,-0.1343812,0.0312133333333333,0.166526,-0.0734766666666667,0.105013333333333,-0.10568,-0.270008666666667,0.187963333333333,0.0263006666666667,-0.40096,0.354832,0.0791786666666667,0.0273174,0.190653333333333,0.33182,0.308863333333333,0.274431,0.0467256666666667,0.274127333333333,-0.318011666666667,0.07951,-0.107107,-0.0462786566666667,0.288617666666667,-0.130323666666667,0.0960636666666667,-0.43179,0.341873333333333,0.237223333333333,0.17974,0.0816966666666667,-0.169721666666667,-0.122336666666667,0.48312,-0.0191166666666667,-0.292306666666667,0.0716613333333333,0.116752666666667,-0.10884,-0.132056333333333,-0.104601366666667,-0.119368333333333,0.0966643333333333,-0.1442,0.110870566666667,0.261632666666667,0.016735,0.0455766666666667,-0.0724333333333333,-0.13476,-0.127631666666667,-0.014541,0.290086666666667,-0.0565666666666667,-0.192533333333333,-0.0962853333333333,0.102320666666667,0.0114983333333333,-0.113580333333333,0.011214879,-0.193376666666667,0.019344,0.126886666666667,0.280357,0.559176666666667,-0.105887143333333,-0.444022266666667,-0.0442833333333333,0.03101,0.171863333333333,-0.0376123333333333,-0.025259,0.0401386666666667,-0.210381666666667,0.0347066666666667,0.32178,-0.08445,-0.261247,-0.203996,-0.1556,0.152016366666667,0.0299756666666667,0.205756666666667,0.45864,-0.148552333333333,0.428952666666667,-1.87366666666667,0.277433333333333,0.695493333333333,0.0583483333333333,0.0707503,-0.124461,0.192279666666667,0.261813333333333,0.42591,0.37789,-0.053558,0.282836666666667,0.160139666666667,-0.267526666666667,-0.323976666666667,-0.118036,-0.0961876666666667,-0.368696666666667,0.29535,0.559016666666667,0.113369333333333,0.168782,-0.470032666666667,-0.1643517
"Intellect",0.130024666666667,-0.26688,-0.309801666666667,0.0306406666666667,0.0781715333333333,-0.117256666666667,-0.0441646666666667,-0.0537886666666667,0.0579803333333333,-1.28587666666667,0.275875,-0.0546043333333333,-0.222493666666667,0.05627,-0.113784,-0.006239,0.242758,0.0834466666666667,-0.07314,0.146583333333333,0.0531223333333333,0.461783333333333,0.00314866666666667,-0.113547,-0.281995666666667,-0.084213,-0.0705766666666666,0.0470466666666667,0.147097933333333,0.0750666666666667,-0.060231,0.394163333333333,-0.385576666666667,-0.18381,-0.46479,0.583076,0.229396,-0.040017,0.115386666666667,-0.107486666666667,0.327033,0.1074671,-0.0108923333333333,-0.330416,0.0122563333333333,0.421531,0.194023333333333,0.292746666666667,-0.0366766666666667,0.140017666666667,0.155673333333333,-0.440796666666667,0.117834333333333,-0.247883333333333,-0.01623,0.104053,-0.09572,0.0655236666666667,0.136946666666667,0.203623333333333,0.442223333333333,-0.102166666666667,0.165956333333333,-0.00263236666666667,-0.356283333333333,0.374553333333333,-0.40069,0.300858,-0.0741466666666667,0.182828666666667,-0.185183333333333,-0.372284666666667,0.00380733333333334,0.20563,-0.0279764333333333,-0.325776666666667,0.0197566666666667,0.21007,0.0106830766666667,-0.210186666666667,-0.204180333333333,0.0238473333333333,-0.015413,-0.0417966666666667,0.255983333333333,0.105286666666667,0.644773333333333,-0.108638333333333,0.012723,0.196635666666667,-0.181444,0.292186666666667,-0.17431,0.446791333333333,0.251443333333333,-0.407353333333333,0.0752166666666667,0.08898,-0.0349721,-0.406776666666667,-0.0378278333333333,-0.205253333333333,-0.0953366666666667,-0.109054333333333,-0.397656666666667,-0.1876531,-0.15928,-0.0977296666666667,-0.0111733333333333,-0.0705666666666667,0.292558666666667,-0.0552193333333333,0.158824,-0.04568,0.397756666666667,0.13309,0.189476,0.0764346666666667,-0.377051333333333,-0.116495666666667,0.25016,0.201866666666667,-0.191697,0.370773333333333,0.137842,-0.518366666666667,0.0233133333333333,-0.0195866666666666,-0.113689333333333,0.0728163333333333,0.0233146666666667,-0.33767,0.240843333333333,-0.20703,-0.455476666666667,0.20229,-0.0115149,-0.195059333333333,-0.245613333333333,0.406243333333333,0.131836333333333,-0.0732433333333333,0.284242333333333,0.148133333333333,0.330153333333333,0.245590666666667,-0.173750333333333,0.252506,-0.755163666666667,0.13789,-0.20975,-0.0405843333333333,0.0635386666666667,0.05224,-0.180812333333333,-0.036238,-0.0860723333333333,0.16423,0.46658,0.0218356333333333,-0.0669753333333333,0.130123333333333,0.165374666666667,-0.31969,0.364272666666667,-0.413037366666667,-0.0600776666666667,0.195040666666667,-0.0857793333333333,0.12612,0.0857371666666667,-0.369560666666667,-0.357597533333333,-0.247193333333333,0.46088,-0.345626,0.229925666666667,0.152836666666667,0.0682815666666667,-0.261081666666667,0.238732333333333,-0.170283666666667,0.0509746666666667,-0.0750326666666667,-0.169528666666667,0.458806666666667,-0.0251691666666667,-0.0806193333333333,0.00271366666666667,-0.023804,-0.278766666666667,-0.212291666666667,-0.00935000000000001,0.33792,-0.1698,-0.0147546666666667,-0.707566666666667,0.0930463333333333,-0.150983,0.0742866666666667,0.528443333333333,-0.330904,0.093126,0.1333615,-0.026936,-0.00751766666666667,-0.0561876666666667,0.375073333333333,-0.212168,0.140811333333333,0.214366666666667,0.0590666666666667,-0.100206666666667,0.406143333333333,-0.312311666666667,0.087996,-0.0899366666666666,0.159365,0.0756726,0.0189253333333333,-0.754463333333333,-0.178143333333333,-0.291104666666667,0.2239,-0.0690366666666667,-0.0563133333333333,-0.0999166666666667,0.26017,-0.0681533333333333,-0.0980566666666667,0.189000333333333,0.27246,-0.121249666666667,-0.0955773333333333,-0.124803333333333,-0.1136021,0.07046,-0.297253333333333,-0.5055,-0.0622812333333333,0.153960333333333,0.220149,0.14911,0.145629,-0.879503333333333,0.0649073333333333,-0.406423333333333,0.0920933333333333,0.0180883333333333,0.227336666666667,0.0184233333333333,0.0201433333333333,0.203641333333333,0.209392666666667,-0.148626666666667,0.200136,0.167488333333333,-0.0975466666666667,-0.134467833333333,-0.0423533333333334,0.15877,-0.477243333333333,0.205636333333333,-0.136982,-0.19814,0.23608,-0.333056666666667,0.113935333333333,0.113764666666667,0.0406476666666667,0.234382,-0.149555666666667,0.230533333333333,-0.311724333333333,-0.138391,0.358563333333333,-0.901453333333333,0.058968,0.682466666666667,-0.448173333333333,0.022018,-0.152623333333333,0.02616,0.100873333333333,0.385143333333333,0.068689,-0.226376666666667,0.0105183333333333,0.077527,0.07215,-0.0214423333333333,0.125197333333333,-0.06857,0.281263066666667,0.41416,0.0594833333333333,-0.24851,0.297053333333333,0.0528506666666667,0.013254
"Adversity",0.14052,-0.0816733333333333,0.0701036666666667,-0.0215166666666667,-0.0585833333333333,-0.36929,-0.162046666666667,0.00846633333333332,0.257793333333333,-1.6618,0.255183333333333,0.255400333333333,0.0391003333333333,0.144107666666667,0.158603333333333,0.180226666666667,-0.118163,0.256988666666667,0.13236,-0.0958286666666667,0.256936666666667,-0.11037,0.142793333333333,-0.32966,-0.332936666666667,-0.0197486666666667,0.14251,-0.0295256666666667,-0.0879947066666667,0.188086333333333,-0.408908666666667,-0.080847,-0.319918333333333,-0.31565,-0.340106666666667,-0.251284333333333,-0.318323,-0.182786666666667,0.21925,0.314154666666667,0.217164,0.287263233333333,0.22475,0.073883,0.0969833333333333,0.299048,-0.441199666666667,-0.331976666666667,-0.11069,0.229966666666667,0.0222513333333333,0.073537,-0.099599,0.05528,0.109626666666667,-0.116527533333333,-0.373246666666667,0.308124666666667,0.37243,0.15222,-0.0295616666666667,0.159289333333333,-0.130616,0.06658,-0.628896666666667,-0.0497376666666667,0.219666,-0.247930933333333,-0.126603,-0.166119666666667,0.0509372,-0.17372,0.303173333333333,-0.316776666666667,0.357018466666667,0.0254526666666667,0.105196666666667,0.395703333333333,-0.243930666666667,0.791353333333333,-0.162459666666667,-0.0253733333333333,-0.0667433333333333,0.0293133333333333,0.31682,-0.0779033333333333,-0.17046,0.186678,0.113953333333333,-0.028757,-0.347294666666667,-0.215936666666667,-0.0803715666666667,0.227068666666667,0.116431333333333,-0.124827333333333,-0.185173666666667,0.143423333333333,0.0766013333333334,-0.12919,-0.040041,0.069896,-0.250789666666667,0.375701666666667,0.063356,-0.319657666666667,-0.170132666666667,0.00120666666666668,0.0732553333333333,0.0843126666666666,0.146993333333333,-0.0546933333333333,-0.0868893333333333,0.108377666666667,0.463193333333333,0.14183,0.0683563333333333,0.00274966666666666,-0.114833333333333,-0.536324,-0.170336666666667,-0.14411,-0.36694,0.2259353,-0.168102,-0.311173333333333,-0.339246666666667,0.187001666666667,0.179818,-0.065427,-0.0262647666666667,0.0333580333333333,-0.225679333333333,-0.37903,-0.0102176666666667,-0.102126666666667,0.0456933333333333,0.43969,0.287447,0.014442,0.16283,-0.148088266666667,-0.013073,-0.023336,-0.406629333333333,0.0508716666666667,0.31779,-0.296013333333333,-0.121891333333333,-0.312142666666667,0.209042166666667,-0.34878,-0.05629,0.41672,-0.33315,-0.0103076666666667,0.339526666666667,0.102345,0.102177666666667,0.179946,0.394499333333333,0.274289933333333,0.407186333333333,0.0576976666666667,-0.28855,-0.246261666666667,-0.36582,-0.0623914666666667,0.105172666666667,-0.557843333333333,0.148422333333333,0.0402193666666667,-0.673186666666667,-0.45697,-0.0473603333333333,0.03712,-0.0890746666666666,0.124351933333333,0.288263333333333,0.0979883333333333,-0.144919,-0.357993333333333,-0.138889333333333,-0.0960713333333333,-0.506813333333333,0.00444333333333334,-0.310530333333333,0.0771263333333333,-0.019878,0.03112,-0.276453333333333,-0.393343333333333,0.0816933333333333,0.00760366666666667,-0.161143333333333,-0.104336666666667,0.270374,-0.315733333333333,0.0533633333333333,0.05316,0.0395786666666667,-0.413523333333333,-0.177117,-0.433893333333333,0.010882,0.214107666666667,0.0348646666666667,-0.148263333333333,-0.15052,-0.00612999999999999,-0.112513333333333,0.224316666666667,0.167925,0.209210666666667,-0.0846733333333333,-0.418426666666667,-0.1924621,-0.261268,-0.213995,0.194000333333333,0.0817536666666667,0.395466666666667,0.158034,0.0608353333333333,0.0991656666666667,-0.09437,0.114586666666667,0.260565,0.113561,0.0141943333333333,0.0464806666666667,-0.30934,0.0908215666666667,-0.162566666666667,-0.478366666666667,-0.38772,-0.163095366666667,-0.144277333333333,0.370364,-0.0627036666666667,-0.335456666666667,0.0541963333333333,0.0729006666666667,-0.044465,-0.404213333333333,-0.000967333333333329,0.04372,-0.00709466666666666,-0.287241333333333,-0.144552666666667,-0.0907596666666667,0.209313333333333,0.111946666666667,0.133134,0.509263333333333,-0.240345333333333,-0.229646666666667,-0.284733333333333,-0.160932333333333,0.0564633333333333,-0.204120333333333,-0.133164,-0.174453,0.0108556666666667,-0.2095721,-0.04286,-0.288056666666667,-0.14308,-0.140863333333333,0.151055333333333,0.550933333333333,0.323955666666667,-0.406423333333333,0.0965566666666667,-0.001253,0.358143333333333,-1.32927333333333,-0.00208813333333333,0.98968,0.0357783333333333,0.160300333333333,-0.0295036666666667,-0.026446,0.146878666666667,0.195106666666667,-0.33275,0.209856666666667,-0.00991133333333333,0.160822666666667,0.07133,0.0720216666666667,0.15072,0.4468,0.307303333333333,0.0412885333333333,0.245557666666667,-0.0702833333333333,-0.150760666666667,-0.197181133333333,-0.159123333333333
"Mating",-0.340466666666667,-0.313286666666667,0.0902806666666667,0.190775,-0.198192333333333,0.286706666666667,-0.539008666666667,-0.0957836666666667,0.146255,-0.71545,0.431126666666667,0.109935666666667,-0.30551,0.167852333333333,-0.070789,-0.4345,0.174202,-0.085059,0.189546666666667,0.3987,-0.289506666666667,0.699896666666667,-0.249283333333333,0.412214,0.156816666666667,-0.0732656666666667,0.137201333333333,-0.354513333333333,0.208094666666667,0.00933383333333332,-0.0258466666666667,0.36249,-0.496103333333333,-0.36694,-0.662383333333333,0.300353333333333,-0.439056666666667,-0.018912,0.012992,0.0795416666666666,0.32873,-0.336793333333333,-0.05902,-0.445403333333333,0.456556666666667,-0.146228333333333,0.250925,0.093323,-0.0395053333333333,0.118749,0.28524,-0.03032,-0.246938333333333,-0.353526666666667,-0.180048433333333,-0.0359383333333333,0.0242499,-0.063469,0.503303333333333,-0.115769,0.632043333333333,0.08708,0.540196666666667,0.28116,-0.175272666666667,-0.44199,0.410246666666667,0.175825666666667,0.42837,0.021499,-0.391607163333333,-0.50744,0.218471333333333,0.0181564,0.283382,0.254891333333333,0.343886666666667,-0.114171333333333,-0.188406,-0.138073,-0.166359666666667,-0.187206666666667,0.122406,0.0401766666666667,-0.235668,0.219816666666667,0.188522,0.263633333333333,0.22748,0.0289133333333333,-0.262591666666667,0.08106,0.0743233333333333,-0.220438333333333,-0.049881,-0.180958666666667,0.38098,0.0610126666666667,-0.0753966666666666,-0.735613333333333,0.134836666666667,-0.12034,-0.132989666666667,-0.158093333333333,0.050041,0.055807,0.0677166666666667,-0.0107486666666667,0.034796,-0.341988333333333,0.269131333333333,-0.039182,0.253793333333333,-0.100673666666667,0.333617,0.670783333333333,0.0482233333333333,0.48554,0.246782333333333,-0.159122,-0.0496796666666667,0.192803333333333,-0.330984333333333,0.215847,-0.396236666666667,-0.266536333333333,-0.075391,-0.0623617333333333,-0.316773333333333,0.117383333333333,0.58756,-0.132386666666667,0.0541056666666667,0.0489996666666667,-0.1868803,-0.07737,-0.356503333333333,-0.35938,-0.06244,-0.122139333333333,-0.20525,-0.161192,0.0283933333333333,0.0736205666666667,0.18596,-0.510936666666667,-0.322690333333333,-0.09252,0.123499666666667,0.36888,-0.186405666666667,0.0999273333333333,-0.0337733333333333,0.50234,0.278676666666667,-0.0575416666666667,-0.16734,-0.011066,-0.00549766666666666,-0.0724333333333333,0.714113333333333,-0.18265,0.169133,-0.206326666666667,-0.274770666666667,0.340966666666667,-0.232666666666667,0.110878333333333,-0.370246666666667,-0.219316333333333,-0.13234,-0.229828333333333,-1.20396333333333,0.496576666666667,-0.06763,0.161383333333333,-0.157643,-0.437736666666667,-0.486303333333333,-0.198006666666667,-0.0878116666666667,-0.212538,-0.0717133333333333,0.123502,0.0950533333333333,-0.4477,-0.06845,0.18445,0.284662666666667,-0.246185,-0.489306666666667,-0.445565333333333,-0.178846666666667,-0.148039666666667,-0.75717,-0.158132333333333,-0.484443333333333,-0.01686453,-0.09217,0.0762456,0.723271666666667,-0.174277666666667,0.212126666666667,-0.088941,0.2972,-0.175253333333333,0.111769,0.624833333333333,-0.227346,0.137749666666667,-0.41785,-0.267758333333333,0.0559803333333333,0.52709,0.0351433333333333,0.104021,0.287683333333333,-0.0771433333333333,0.23106,0.0938236666666667,-0.246836666666667,0.252080333333333,-0.0917006666666667,-0.300548666666667,-0.475586666666667,-0.06769,0.0563486666666667,-0.299223333333333,-0.096976,0.43017,0.0926096666666667,-0.332786666666667,-0.302756666666667,-0.373996666666667,-0.225620333333333,0.109162066666667,0.170982733333333,0.298866666666667,-0.561683333333333,0.011698,-0.0694166666666667,-0.0674666666666667,0.191745666666667,0.166176666666667,-0.384463333333333,0.1030689,-0.479716666666667,0.149206666666667,-0.0191206666666667,0.30038,-0.217056,0.132713333333333,-0.142172,0.13245,-0.013224,-0.239362,0.39216,-0.334052333333333,0.213353333333333,0.162756666666667,0.0284716666666667,-0.40751,-0.0279766666666667,-0.471256666666667,-0.334696666666667,0.30327,-0.3165,-0.321033333333333,0.232908333333333,0.479225333333333,0.237496666666667,-0.486493333333333,-0.0125646333333333,-0.414633333333333,-0.0169368,0.07733,-0.478626666666667,-0.24291,0.486356666666667,-0.385674,-0.13208,-0.357343333333333,-0.0625266666666667,-0.06888,-0.442053333333333,0.04664,-0.313556666666667,0.34571,0.328715,0.216409666666667,-0.5166,0.00238833333333334,0.0541176666666667,-0.218203,0.283083333333333,-0.358493333333333,-0.0481533333333333,0.372408666666667,0.0197803333333333,0.130812333333333
"Positivity",-0.37978,-0.11333,-0.123796333333333,-0.259763333333333,-0.145925,-0.32595,0.000623333333333323,-0.199815,0.108583333333333,-1.28375666666667,0.0889556666666667,-0.0227266666666667,0.102404,0.0778366666666667,-0.0145203333333333,0.0988793333333333,-0.242262666666667,-0.02372,0.175586666666667,-0.0216133333333333,-0.276037,0.57844,-0.0442976666666667,0.152567333333333,-0.144813,-0.39018,0.0956806666666667,-0.373523333333333,0.374746666666667,-0.207844,-0.258243333333333,-0.00749033333333333,-0.391555333333333,0.04514,-1.07752333333333,0.802483333333333,-0.129,0.143813666666667,0.03555,-0.266423333333333,-0.008072,-0.0265453333333333,0.07636,-0.07031,0.15601,0.259056666666667,0.138483333333333,-0.282289333333333,0.0272986666666666,0.171226666666667,-0.115238333333333,0.121186,0.416833333333333,-0.0178941,0.144719,0.462981,0.130363333333333,-0.133636666666667,0.262996666666667,0.0470906666666667,0.383553333333333,-0.049203,0.562476666666667,-0.110728666666667,-0.188995,-0.317256666666667,0.106174333333333,-0.112546666666667,0.155183333333333,-0.0275166666666667,-0.480053333333333,-0.438046666666667,-0.140516,-0.0575423333333333,-0.203779666666667,-0.41395,0.305608666666667,0.141996666666667,0.145124333333333,-0.07365,-0.213433333333333,0.11818,0.430463666666667,-0.347179,0.172675333333333,0.078737,0.0159003666666667,0.0870383333333333,0.08016,-0.0754133333333333,-0.0343056666666667,-0.033439,0.0439506666666667,-0.215954333333333,0.280622666666667,-0.0933923333333333,0.128346666666667,-0.057685,-0.0532233333333333,0.0791966666666666,-0.319734,-0.510346666666667,-0.144166666666667,-0.109398333333333,-0.239367333333333,0.167026666666667,-0.00369666666666665,-0.138413333333333,-0.209049,-0.30371,-0.0869203333333333,-0.219168333333333,0.580396666666667,-0.152534333333333,0.109035333333333,0.0176826666666667,0.20725,0.162036,-0.043021,0.373938333333333,-0.0486216666666667,-0.205755333333333,0.259265,0.421823333333333,-0.180609,0.104286666666667,0.442603333333333,0.233406796666667,-0.177893333333333,-0.0211116666666667,0.325639666666667,0.223396666666667,-0.316176666666667,0.000297999999999998,-0.350443333333333,-0.387338166666667,-0.0497666666666667,-0.417,0.322736666666667,-0.116303333333333,-0.158898666666667,0.08755,0.129066666666667,-0.265993333333333,-0.4357,-0.28013,-0.150786666666667,-0.222704,-0.133132666666667,0.277793333333333,-0.390713333333333,-0.48907,-0.086642,0.227892666666667,0.09205,-0.144934666666667,-0.162697333333333,-0.183046,-0.173533,0.161936666666667,0.0422486666666667,-0.493846666666667,-0.256496666666667,-0.28256,0.187240666666667,0.1761496,0.200213666666667,-0.194727,0.52909,0.351406666666667,0.354676666666667,-0.502556666666667,-0.291896666666667,0.0464133333333333,0.0867333333333333,-0.0466405333333333,0.1676975,-0.218176666666667,-0.245816,0.00298333333333331,-0.114789333333333,-0.181506666666667,0.113272,0.141976666666667,-0.0483656666666667,-0.0190583333333333,0.13281,-0.198986666666667,-0.274906666666667,0.0340057333333333,-0.351014666666667,0.0371033333333333,0.20846,-0.276442666666667,-0.159742333333333,-0.567737666666667,-0.0491766666666667,-0.228851,-0.37317,0.0174906666666667,0.842796666666667,-0.41551,-0.155928,0.169793666666667,-0.0799063333333333,-0.310606666666667,-0.18772,0.22109,-0.227986666666667,-0.05873,-0.315639,-0.145536,-0.348118,-0.106943,0.256733,-0.170796666666667,0.32438,-0.117910333333333,0.365103333333333,-0.391563333333333,0.085145,-0.0479773333333333,-0.217246666666667,0.251625666666667,0.063678,0.147137333333333,0.237021,0.0696297666666667,0.324891,0.349394666666667,-0.341793333333333,0.0175473333333333,0.0361543333333333,-0.7328,0.148281666666667,0.45341,0.0348716666666667,-0.317423333333333,-0.175954,0.218430333333333,0.266446666666667,-0.137248666666667,-0.111478,0.159606666666667,-0.127291,-0.234248,0.16129,0.157830333333333,-0.2333,-0.30108,0.227853333333333,-0.682153333333333,0.12288903,0.416753333333333,-0.07542,0.314936666666667,0.2757,-0.380615333333333,-0.230813333333333,0.108183333333333,-0.0885403333333333,-0.137316666666667,0.191773333333333,0.117562933333333,-0.0732182333333333,-0.078,0.460957666666667,0.138734333333333,0.446433333333333,0.0946266666666667,0.37545,-0.201146666666667,-0.0586933333333333,-0.137800333333333,0.520323333333333,0.0877736666666667,-1.09463333333333,0.53077,0.2537362,0.005308,-0.506623333333333,0.458243333333333,-0.227324666666667,0.161076666666667,-0.000176033333333334,0.166306666666667,0.23018,-0.000476999999999981,-0.136342333333333,-0.218916333333333,0.038676,0.2338,-0.289363333333333,0.195121333333333,0.197463333333333,-0.26461,0.06314,0.207373333333333,0.10777,0.159235333333333
"Negativity",0.028762,0.0127233333333333,0.0473233333333333,-0.211792,-0.166405333333333,-0.469366666666667,-0.222921666666667,0.449966666666667,0.284791,-1.43775,-0.024517,0.204099666666667,0.003015,-0.189206666666667,-0.0216382,-0.48761,0.059516,-0.29161,0.096704,-0.166715866666667,0.0457506666666667,0.193328333333333,0.340523333333333,0.260317666666667,-0.0708133333333333,-0.20923,0.224996666666667,-0.532316666666667,0.48138,-0.0481833333333333,-0.463236666666667,0.0326983333333333,-0.0176406666666666,-0.436127,-0.91459,0.36693,-0.440033333333333,-0.104931666666667,-0.142752666666667,-0.0473016666666667,0.153667333333333,-0.0951193333333333,0.199810266666667,-0.445026666666667,0.09900713,0.00357333333333333,-0.33068,-0.557103333333333,-0.0623166666666667,0.512606666666667,0.120211333333333,0.03408,0.535135666666667,-0.29298,-0.0301233333333333,0.308343333333333,0.26852,0.265994333333333,0.161054,0.310407333333333,0.320526666666667,-0.376392666666667,0.0405273333333333,-0.1590537,0.117866333333333,-0.330776666666667,0.320833333333333,-0.05814,0.0194,-0.215951,-0.181800666666667,-0.36312,-0.149880333333333,-0.231849,-0.186846666666667,-0.601453333333333,0.21083,0.37836,-0.00508533333333334,-0.0672066666666667,-0.257806666666667,-0.474943333333333,0.595073333333333,-0.27038,0.0811206666666667,0.268996666666667,0.477346666666667,0.100526666666667,0.185637333333333,0.245573333333333,-0.378173333333333,0.148196666666667,-0.221092333333333,-0.297918666666667,0.150003,0.158279,-0.378026333333333,0.119962666666667,0.301611466666667,-0.301863333333333,0.0258523333333333,-0.468526666666667,-0.0830833333333333,-0.0110766666666667,-0.140509333333333,0.0737206666666667,-0.00606699999999999,-0.192734,-0.14832,0.121098666666667,0.155886666666667,-0.198523333333333,0.0821266666666667,0.0125013333333333,0.53048,0.119021,0.263753333333333,-0.121844666666667,-0.205855033333333,-0.26403,0.131156333333333,-0.54394,-0.30547,0.53606,0.0258883333333333,0.237651333333333,-0.184613333333333,-0.116282,-0.0145556666666667,-0.093464,0.403323333333333,0.286051666666667,-0.130203333333333,-0.0104108266666667,-0.34583,-0.409798,0.0526963333333333,0.175538333333333,0.131596666666667,0.214273333333333,-0.315033333333333,0.248026666666667,-0.145603,0.1287,-0.374013333333333,-0.323563333333333,-0.0477763333333333,-0.0728306666666667,0.2534443,0.138979666666667,-0.232011333333333,-0.327986666666667,-0.168997666666667,0.118733333333333,-0.0543010333333333,0.126876666666667,0.210150666666667,0.24331,-0.0204246666666667,0.220653333333333,0.286933333333333,-0.35231,0.0861603333333333,-0.161766736666667,0.372513333333333,0.374926666666667,0.201466666666667,-0.04316,0.248201333333333,-0.209663333333333,0.48461,-0.147876666666667,-0.349844666666667,-0.356496666666667,-0.376233333333333,-0.360146666666667,0.0558846666666667,-0.288686666666667,-0.0485266666666667,0.0294606666666667,0.0424903333333333,-0.037688,-0.188210333333333,0.110443333333333,-0.179330333333333,-0.0845293333333333,0.409092333333333,-0.48879,-0.012179,-0.07562,-0.446393333333333,0.0500733333333333,0.138545666666667,-0.254586666666667,-0.138138666666667,-0.48264,0.0708566666666667,-0.179413666666667,-0.184616666666667,0.0147156666666667,0.411563333333333,0.000193333333333344,-0.263383333333333,0.137143666666667,-0.192292333333333,-0.1116468,-0.06797,0.390223333333333,0.083334,-0.160076666666667,-0.446873333333333,0.0242066666666667,-0.042963,-0.195396666666667,0.166852,-0.2486194,0.735453333333333,0.0394293333333333,0.36591,0.121353333333333,-0.322269666666667,0.0865543333333333,0.080782,0.2359,0.0892366666666667,-0.0815551,0.148159066666667,0.00983333333333333,0.30787,0.187886666666667,-0.149415,-0.0527833333333333,-0.191480333333333,-0.57879,-0.242503333333333,0.33512,0.219368,-0.397053333333333,-0.0754333333333333,0.0382516666666667,0.390906666666667,0.074479,0.187695,-0.172351666666667,-0.779626666666667,-0.185480566666667,0.281653333333333,0.0530166666666667,-0.20553,-0.0199719,0.120136666666667,-0.349543333333333,0.0345933333333333,0.406326666666667,0.121666666666667,0.396906666666667,-0.226673333333333,-0.462303333333333,-0.133669333333333,-0.181798333333333,-0.199471333333333,-0.067568,-0.438196666666667,-0.216342,0.239333333333333,0.117442666666667,0.08758,0.020131,0.0191866666666667,0.103499666666667,0.446393333333333,0.179503333333333,-0.0886473333333333,0.287312333333333,-0.085969,0.094013,-0.957316666666667,0.0638496666666667,0.511786666666667,0.0875069666666667,-0.568876666666667,0.31919,-0.0949776666666667,0.158557666666667,0.219846666666667,0.0695823333333333,0.207614333333333,-0.0753973333333333,0.146645666666667,-0.122505,-0.157466,0.160966666666667,-0.0911866666666667,-0.110553,0.184847,-0.290846666666667,-0.103493333333333,0.204866666666667,-0.099527,0.139040666666667
"Deception",-0.060766,0.190275333333333,-0.13819,0.10278,-0.01982,-0.076833,-0.160259,-0.225825033333333,-0.0327533333333333,-0.667903333333333,-0.204797666666667,0.000243333333333325,-0.432693333333333,0.00914566666666667,0.24824,0.339586666666667,-0.148148,-0.012074,0.81917,0.110836666666667,0.45191,0.203389666666667,-0.343033333333333,-0.393873333333333,-0.0394466666666666,0.00190433333333333,0.0776166666666667,0.0100306666666667,0.0219106666666667,0.0740733333333333,-0.338391333333333,-0.0558533333333333,-0.124729,-0.356301666666667,0.230308666666667,-0.0228583333333333,-0.185385,-0.230716666666667,-0.00807866666666667,0.2865,0.185257,-0.17146,-0.176051666666667,0.0274566666666667,0.12159,-0.204216666666667,0.192288666666667,-0.002133,-0.200552866666667,-0.168171333333333,0.302493333333333,0.173732333333333,0.41383,-0.415676666666667,-0.383346666666667,-0.0985053333333333,-0.35952,-0.103056333333333,-0.0394333333333333,0.0598366666666667,0.710183333333333,-0.0184466666666667,0.0604083333333333,0.229816,0.165590333333333,0.0213236666666667,0.479453333333333,-0.217953333333333,-0.291089666666667,0.1407923,-0.248466,0.0336061333333333,0.54035,-0.424113333333333,-0.130003333333333,0.111943333333333,-0.0518346666666667,-0.170342,0.0931246666666667,0.248741666666667,0.2371624,-0.0870646666666667,0.22759832,0.347763333333333,0.0237366666666667,0.220150666666667,0.164123333333333,0.0334246666666667,-0.209806666666667,0.0711866666666667,-0.349046666666667,-0.130474333333333,0.343055333333333,0.299513333333333,0.0834816666666667,0.0705613333333333,0.053069,0.525069366666667,0.69003,-0.244815333333333,0.119286666666667,0.207945666666667,-0.466493333333333,0.024742,0.061105,-0.2163442,0.287362666666667,-0.0575676666666667,-0.0314466666666667,-0.185996,0.19852,-0.3477982,-0.333398333333333,-0.330093333333333,0.165356966666667,0.736416666666667,0.333223333333333,0.09032,-0.267146666666667,0.229863333333333,0.00482133333333333,0.25513,-0.120365666666667,0.42592,0.0702366666666667,-0.230089,-0.039299,0.0489366666666667,0.0778566666666667,0.208453333333333,-0.312846666666667,0.0882666666666667,0.115789333333333,0.0457106666666667,-0.181456666666667,0.48244,-0.085209,0.095646,-0.115403,-0.13855,0.0728783333333333,-0.0414,0.257740333333333,0.12453,-0.0335866666666667,-0.250183333333333,-0.0128466666666667,-0.0975327,-0.0460516666666667,-0.198483333333333,-0.70374,0.470993333333333,-0.19593,0.0768648,-0.0182323333333333,0.481363333333333,0.0714966666666667,0.461686666666667,0.37764,0.083319,-0.202893333333333,-0.351683333333333,-0.067816,0.30138,0.066456,-0.0795023333333333,0.144278333333333,-0.168032,-0.0727956666666667,-0.0194877,0.133520666666667,-0.27269,-0.182926666666667,-0.276551666666667,-0.0496243333333333,0.166804333333333,-0.274405666666667,0.169334666666667,-0.407649,-0.495683333333333,0.26503,-0.0365126666666667,-0.0651006666666667,-0.0203793333333333,-0.0190833333333333,-0.0845236666666667,0.43932,0.0352606666666667,0.24023866,0.192309666666667,-0.248006666666667,-0.559779333333333,0.728623333333333,-0.289412666666667,0.28195,0.138688,-0.252736666666667,-0.150324333333333,0.118913533333333,-0.297723333333333,-0.00884666666666663,-0.231557666666667,-0.20764,0.0512916666666667,0.0364493333333333,0.0400266666666667,0.14193,-0.108973333333333,0.0160826666666667,-0.231973333333333,-0.0952183666666667,0.129871666666667,0.12218,0.181215,-0.503116666666667,-0.082167,0.46379,-0.000721200000000001,-0.2026377,-0.055181,-0.536090666666667,0.334103333333333,0.196767333333333,-0.0725953333333333,-0.165509666666667,-0.228881,-0.147016666666667,-0.147694666666667,-0.34247,-0.05109,0.41459,0.0991833333333333,0.150145433333333,-0.213783333333333,-0.755006666666667,-0.32848,0.024326,0.207186666666667,0.245157333333333,-0.121653,-0.45613,0.1261984,0.159619333333333,-0.356966666666667,-0.55657,0.0928006666666667,0.155383,0.23233,0.312081666666667,0.107870333333333,0.0755933333333333,0.522283333333333,0.171773333333333,-0.292483333333333,0.176204333333333,-0.144359,-0.109517666666667,-0.0910499666666667,-0.129316,-0.43176,0.370856,-0.163576666666667,0.313967333333333,0.0192416666666667,-0.0223369666666667,0.0719266666666667,-0.0496066666666667,-0.64318,0.305188333333333,0.09789,0.206572666666667,-0.258908333333333,0.276054,0.184877,-0.037994,0.20457,-0.0261666666666666,-0.112441333333333,0.603553333333333,-0.426896666666667,0.17973,-0.268278333333333,-0.164768333333333,-0.0379053333333333,0.112164,-0.139519866666667,-0.205673333333333,-0.121556666666667,0.448876666666667,-0.350846666666667,-0.113823333333333,0.463993333333333,0.115327666666667,0.231973666666667,0.242502666666667,-0.420976666666667,0.200496666666667,0.330467,-0.0891363333333333,-0.21881
"Sociality",-0.579966666666667,0.01272,-0.142946666666667,-0.29219,0.192635,-0.400353333333333,-0.2955,-0.0979673333333333,0.100184133333333,-2.15906666666667,0.210036,0.302443333333333,-0.227993333333333,-0.260816666666667,0.0895133333333333,-0.25482,0.101243,-0.0529136666666667,-0.340707,0.138437666666667,-0.0763693333333333,0.268345,0.193975666666667,0.0602433333333333,-0.185526,-0.04504,0.329969,0.139340666666667,-0.000434333333333335,0.02573,0.0815326666666667,-0.0106,-0.168328233333333,0.321158433333333,-0.0438129966666667,0.236197,0.531723333333333,-0.104803333333333,0.0440966666666667,-0.0546556666666667,-0.105586,-0.110915666666667,-0.223683333333333,-0.446403333333333,-0.416263333333333,0.0160233333333333,-0.119565666666667,0.296573666666667,-0.117114333333333,-0.183419333333333,0.166401,-0.0339786666666667,-0.0812586666666667,-0.5066,-0.193866666666667,-0.147618666666667,0.044292,-0.38636,-0.239329666666667,0.324293,0.410397666666667,0.0306496666666667,0.27562,-0.0567914,0.030131,0.198846666666667,0.207973333333333,0.31092,-0.0881966666666667,0.175676666666667,-0.225472333333333,0.0522750333333333,0.0747996666666667,-0.3992,0.0845483333333333,-0.00126666666666666,-0.182365666666667,0.13081,0.114816,0.0803576666666667,-0.120154333333333,-0.36054,-0.08322,-0.202887,-0.13362,-0.217926666666667,0.21521,-0.0749066666666666,-0.207960966666667,-0.068916,-0.43527,0.30219,0.0218836666666667,0.225526666666667,0.496046666666667,-0.257636666666667,0.0311626666666666,0.00449333333333334,0.266402666666667,-0.38756,0.0465166666666667,-0.249226,-0.214293333333333,-0.26429,-0.045305,0.435333333333333,-0.12984,-0.0973513333333333,-0.1708913,-0.228514333333333,0.068036,-0.593633333333333,0.171133,0.18318,0.157394666666667,0.092903,0.329730333333333,0.0604233333333333,-0.217833333333333,0.25419,0.11563,0.343892666666667,0.204003333333333,-0.261943333333333,-0.0322266666666667,-0.379776666666667,0.23865,-0.0309953333333333,0.063812,-0.253217,-0.112366333333333,-0.256416666666667,0.0978133333333333,-0.233716666666667,-0.291873333333333,-0.32431,0.1551766,0.052603,-0.0369693666666667,0.38422,-0.45728,0.10052,-0.0355806666666667,-0.214813333333333,0.469005666666667,0.176645333333333,0.198040666666667,0.00485000000000001,-0.210156666666667,0.00730276666666667,0.159397,-0.000697333333333328,-0.0174966666666667,0.212603666666667,0.0660066666666667,-0.0392406666666667,0.430963333333333,0.0828733333333333,-0.16037,-0.36838,-0.121782466666667,0.0349094866666667,0.467496666666667,-0.701183333333333,-0.1436,0.128563333333333,-0.0630599666666667,-0.0413666666666667,0.101936666666667,0.424586666666667,0.0837053333333334,-0.224046666666667,-0.717043333333333,0.313426666666667,0.179413666666667,-0.163536666666667,-0.0252666666666667,-0.286463666666667,-0.234809,-0.00898666666666666,0.217476666666667,-0.312546666666667,-0.0617766666666666,0.148639,-0.627186666666667,-0.160365666666667,-0.293394333333333,0.171382666666667,-0.199746,-0.025915,-0.140052,-0.100960666666667,-0.377083333333333,-0.0318444333333333,-0.196434333333333,0.344737,0.0190676666666667,0.0893556666666667,-0.00764000000000001,-0.310386666666667,-0.0722933333333333,-0.0821173333333333,0.516983333333333,0.15513,-0.0899633333333333,-0.03796,0.0510543333333333,-0.129963,0.210833,0.477603333333333,0.00485699999999999,0.0308866666666667,0.197326666666667,-0.154668,-0.065028,0.0657036666666667,0.150776666666667,0.211433333333333,0.354637333333333,0.442473333333333,-0.417403333333333,0.420136666666667,-0.0664866666666667,0.237043333333333,-0.00593833333333332,-0.243324333333333,-0.05216,-0.321899666666667,0.119445166666667,0.0834693333333333,-0.0390033333333333,0.079274,-0.194073333333333,-0.187441666666667,-0.363936666666667,-0.09683,0.1570037,-0.0428121333333333,-0.27355,0.253163333333333,0.30215,0.191589,0.436043,-0.183253333333333,-0.87869,0.342213333333333,-0.419216666666667,-0.0234586666666667,0.4295,0.175102333333333,0.166123,0.107725333333333,0.04286,-0.0474033333333333,-0.368813333333333,0.403416666666667,0.248272,-0.336533333333333,0.163639666666667,0.4491,0.0658096666666667,-0.473476666666667,0.307669666666667,-0.176626666666667,-0.0857353333333333,-0.110388333333333,-0.196792666666667,0.162873333333333,0.077446,0.336156666666667,-0.35829,0.494076666666667,-0.0232659666666667,-0.31439,0.067594,-0.0568266666666667,-1.23140333333333,0.161973666666667,0.622166666666667,-0.120696666666667,-0.493676666666667,-0.113367,0.216945,-0.296296666666667,0.177364666666667,-0.414534666666667,-0.082562,0.182767666666667,0.232378666666667,-0.0186743333333333,-0.200296666666667,-0.21154,-0.460353333333333,-0.132025666666667,0.365076666666667,0.309826066666667,-0.33054,0.062575,-0.00788400000000001,-0.196751333333333
