"","V1","V2","V3","V4","V5","V6","V7","V8","V9","V10","V11","V12","V13","V14","V15","V16","V17","V18","V19","V20","V21","V22","V23","V24","V25","V26","V27","V28","V29","V30","V31","V32","V33","V34","V35","V36","V37","V38","V39","V40","V41","V42","V43","V44","V45","V46","V47","V48","V49","V50","V51","V52","V53","V54","V55","V56","V57","V58","V59","V60","V61","V62","V63","V64","V65","V66","V67","V68","V69","V70","V71","V72","V73","V74","V75","V76","V77","V78","V79","V80","V81","V82","V83","V84","V85","V86","V87","V88","V89","V90","V91","V92","V93","V94","V95","V96","V97","V98","V99","V100","V101","V102","V103","V104","V105","V106","V107","V108","V109","V110","V111","V112","V113","V114","V115","V116","V117","V118","V119","V120","V121","V122","V123","V124","V125","V126","V127","V128","V129","V130","V131","V132","V133","V134","V135","V136","V137","V138","V139","V140","V141","V142","V143","V144","V145","V146","V147","V148","V149","V150","V151","V152","V153","V154","V155","V156","V157","V158","V159","V160","V161","V162","V163","V164","V165","V166","V167","V168","V169","V170","V171","V172","V173","V174","V175","V176","V177","V178","V179","V180","V181","V182","V183","V184","V185","V186","V187","V188","V189","V190","V191","V192","V193","V194","V195","V196","V197","V198","V199","V200","V201","V202","V203","V204","V205","V206","V207","V208","V209","V210","V211","V212","V213","V214","V215","V216","V217","V218","V219","V220","V221","V222","V223","V224","V225","V226","V227","V228","V229","V230","V231","V232","V233","V234","V235","V236","V237","V238","V239","V240","V241","V242","V243","V244","V245","V246","V247","V248","V249","V250","V251","V252","V253","V254","V255","V256","V257","V258","V259","V260","V261","V262","V263","V264","V265","V266","V267","V268","V269","V270","V271","V272","V273","V274","V275","V276","V277","V278","V279","V280","V281","V282","V283","V284","V285","V286","V287","V288","V289","V290","V291","V292","V293","V294","V295","V296","V297","V298","V299","V300"
"Agency",-0.111875565499485,0.05629610007724,0.0396861038619979,-0.157337396498455,-0.00233023135942328,0.00431870782054584,-0.0448197875257467,-0.0723563944515963,0.0359090191168898,-0.04538188130793,0.0375580242533471,-0.0669855456359423,0.075542811819001,0.0868529528836251,-0.130514295428038,0.0414225950630793,-0.0851649863414006,-0.0801914344361483,0.0183810267121524,0.0367834133625129,0.0332614369207003,0.0439711432479403,0.0364064210221421,0.0898536551300206,0.0523308627832132,0.0441610387487127,-0.0736888230561277,0.00603991136714727,-0.00954442455522657,-0.0838531053681771,-0.0633520840628218,-0.0133495324407827,-0.0699564176750772,-0.00260124096292483,-0.100331732621009,0.0750359507608136,0.00547351943872296,0.0309729949150361,-0.00281085011585993,0.0195207110710608,-0.000579311701853762,0.0167755774407827,-0.00350573569773429,0.00573942445932029,0.00291214777935118,0.0729293752703399,0.101337107917096,-0.0295560972901648,0.0996408914134912,-0.0495106445996396,-0.0614409540036045,0.0317219155187951,-0.0310414793511844,-0.0100152732363543,0.000528774652420191,0.024250994458033,-0.13968928707518,0.0432200163491246,-0.0413128976647786,-0.107994911817714,0.0829118977214212,-0.0129420862512873,0.0612256021369722,0.0239082193099897,-0.00224069695545829,-0.00590445989958807,-0.0850655989057673,0.0700454423274974,-0.117780888516993,-0.0858496741117405,-0.0151808879376931,0.042814165615345,-0.0968581507466529,0.0346506740133883,-0.00468550283213182,0.0226772152677652,-0.0263715549047374,-0.117798183058702,-0.0321034188941813,0.00584097714984552,-0.0284673071704429,0.0195232466658084,0.021668869934346,-0.0468158948249228,0.0204580850283213,0.046822423146241,-0.0688879281024717,-0.064746894438723,0.141558650489186,0.0283282342816684,0.0923051641349125,0.0129621476570546,-0.00905629902484552,0.0251091146562822,-0.0328634128475798,-0.00738962674433574,-0.0546489028707518,-0.0223542948635427,0.0420772415679712,-0.0326512267572091,-0.164869318743563,0.0937274761199794,-0.0269657683444902,-0.00838953571704427,0.0124140098480947,-0.0801380467945417,0.0966554377574665,-0.0802876511328527,-0.0760567655123584,-0.00223919556513903,0.0210275574794027,0.0341412003089598,0.0198573765383625,0.073025830677137,0.0166513357363543,-0.0180276789392379,-0.0126195408921215,0.058787828038105,-0.0232609055097837,-0.0119743271755922,-0.00737916479145211,0.0697775,-0.0127013290164779,-0.0863210126802266,-0.0302946578913491,-0.0515158087667353,0.068950754415551,0.0305817168511843,-0.0461797038684346,-0.0711696777877188,0.104003802980175,0.0391236853759011,-0.14260958094104,-0.0427339187049434,-0.0939493444644696,-0.00151430387487126,-0.0682322259912461,-0.11208204463826,0.0888921790679712,-0.0136464449021627,-0.136873977664779,-0.0485112208419156,0.0445152122554068,0.00705247959577755,0.0941544286817714,0.0347207649330587,0.0397404183831102,-0.0463413089984552,-0.0805868980561277,0.0812709353501545,0.18935314945932,0.0818330410659114,0.0516948615216272,0.0701080233908342,0.0548629057028836,-0.0470878018376674,-0.143067059957518,-0.0570940882466529,-0.0241861696704428,-0.0395668375321833,-0.0552804868048404,0.121170560697734,-0.0377320635298661,0.022313391780381,0.0456520877317199,-0.170062479917611,-0.0311573670185376,-0.0652581208290422,0.0736933121910402,0.0695226329170958,-0.0346408010427394,-0.11808833045829,-0.127424624549434,-0.0809678480303811,0.0424180488027806,0.0866391479145211,-0.0529011126029866,0.0292509344876416,0.15512852492276,-0.0418953949665293,-0.0143865413813079,-0.0442412223223481,0.0302529109680741,0.083807336830587,0.101931264128476,0.0384153750514933,-0.109975381243563,0.07165720005793,-0.0811653490602472,-0.0790919568743563,-0.0864087138645726,-0.066713136859552,-0.0349307886714727,0.0364214979402678,0.0950135122296602,-0.0246174009204428,-0.0186860678231205,0.0154129600283213,0.0494425850283213,-0.0048045150746653,0.132614521820288,0.00293915216271885,0.0400429769567456,-0.0451008476853759,-0.0675010105175077,0.0466112890705458,-0.0186496482427909,0.137770050489186,-0.00353185947476829,-0.045752433831102,0.0131312088053553,0.00729839661431513,0.0118638388452626,-0.0314458730818743,0.0324995558058702,-0.0498864579685891,-0.079147986869207,-0.0268628079299691,-0.0371102648043254,-0.112422845867662,0.00739146588568486,-0.00386749140061794,0.0942483876930999,-0.000252311148300716,-0.0617003585865088,0.0748850265834192,-0.203908231758496,0.13163259938208,-0.00684040153192584,-0.0474316736289907,-0.0537277303681771,0.0663121747875901,0.0811281054969104,-0.0334455758882595,-0.071725559976828,-0.00492874253347065,0.0621795753733265,-0.0293846573699794,-0.111064846549949,0.0214653409500515,0.018214567584964,0.017258931938723,-0.0297074699407827,0.0487154514031926,0.0518205953913491,-0.0396021383625129,-0.113641622257981,0.0727220770532956,-0.0218668250514933,-0.0306361602986612,-0.0667904872232235,-0.0410047453977858,-0.149475440525232,-0.00367920803295571,0.0226517931513903,-0.0491338500901133,0.056532792092688,0.0367514528964985,-0.0242462340885685,0.0402538373069001,0.00064826660659115,-0.0351258365731205,0.0451242509011328,0.0643182961122554,0.137518961374228,0.00725808303295572,0.00145417559217303,-0.0535631481719877,0.0994663651519053,-0.0880320742533471,0.00117014482492276,0.0027020153192585,0.0315423754763131,0.0492348329685891,0.127838947669928,0.0179852849549434,-0.0244983444902163,-0.00698526087796086,-0.0756827881050463,-0.123790326390319,0.0589592542481977,0.108187862062307,0.00376345610195674,0.0614661165679712,-0.0217716980239444,-0.0206337383496396,0.0104468185826468,0.0111982270211123,0.0528738827883625,-0.0240978309732235,0.00590171359423275,0.0524056208805355,-0.0548983417739444,0.0252207171730175,-0.0945111675592173,0.0934690766864058,0.0230376763388259,-0.125553435182801,0.032935005619207,0.0693321631243563
"Progressiveness",0.169655822792608,-0.04915673908282,0.0304277497376226,-0.0414171965548711,0.0962174540041068,0.085567692562172,-0.054510521914214,-0.175556542847365,0.075749717088752,-0.00183944832306637,0.106413931211499,0.0105975917180014,0.00733325238649326,0.0391174128450833,0.114646624849418,-0.00299860090120921,-0.00269868738307096,0.0132574465434634,-0.0121497842801734,0.051986981291353,-0.104607257586128,0.214807947125257,-0.129754813483915,0.0357960041752225,0.0529966418548939,0.0438480625142596,0.133157491101985,0.172530259297285,0.114975785262377,-0.0182902344284737,-0.0300145709559662,-0.0401908361852612,0.0745747610540725,0.16036106710016,0.0387407675108373,0.0320099359046315,0.159641308806753,0.0842701284508328,0.0310744843029888,-0.0829050278804472,-0.219977418799909,-0.0417863038238649,0.013119806171572,0.164275162628337,0.0244410897900981,-0.00598266509240246,-0.0357837699292722,0.0204973874629249,-0.112730293634497,0.0148538847250741,-4.22103582021008e-06,-0.103463958989277,-0.0522747540383299,0.0218992388204426,0.0521996408852384,0.169120420111796,0.136327701574264,0.0356803253479352,-0.0437273966803559,-0.071960461670089,-0.0859175746406571,0.117134271731691,-0.00156428178188457,-0.0251228546885695,0.00444318927675109,0.14255324391969,0.0325293638603696,0.0186873515856719,-0.105660691763632,-0.0364149285877253,0.0273925221309605,0.0742587205110655,0.0455752891854894,-0.0126900153912845,-0.200447535477983,0.0981840885922884,-0.0939280608031029,0.165395898243212,0.0935491303274013,0.0505839883641341,-0.0734691797284965,0.0339703861282227,0.0976322292835957,0.0267948260323979,-0.0121280167693361,-0.0212090886379192,0.114222105293178,0.139253878279717,-0.0106989045174538,-0.126205645881816,0.0186531068902578,0.00278101538900296,0.00282995554985169,-0.0577423885124344,0.0304047369381702,0.139687532808579,-0.136451862537075,-0.202476666666667,0.00331195471138489,-0.072798746201232,0.0392690821355236,-0.0362224200319416,0.0760586162445813,0.19130285483687,-0.0681602994524298,0.0670769355464294,-0.0784432278120009,-0.0241640295459731,-0.0353392866757928,0.0996105925963952,0.00983595277207392,0.0186091830937714,-0.0371728637006617,-0.0542472525096966,0.0173545811088296,-0.0600659898471367,0.000322743235227013,-0.0253491837097878,0.0349037175450605,0.138518722450376,-0.060010341295916,0.139741153775953,-0.102720895368469,-0.00277546212639744,-0.0100322216518366,0.00119814396532057,-0.116049902817705,0.101602161533196,0.0976472358088068,-0.0440702193258042,-0.0837691664271047,-0.0773621870864705,0.14922314217431,0.0625125160848734,-0.113265619826603,0.0221284398471367,-0.0432405423226101,0.106383083333333,0.0410583695071869,-0.0313920022815423,0.0706705252110427,-0.115292341318731,0.00409744202600957,0.0459411761350673,0.160167335158567,-0.1336068409765,0.148530680584075,0.0800153910563541,-0.119768715765457,0.0170931357517682,-0.0225801026694045,-0.116034174994296,0.0135636284850559,0.0270563415925165,-0.0106231057494867,-0.0082789162502852,9.91761921058676e-05,0.0239080077572439,-0.101797775952544,-0.0727207299566507,-0.0847660949121606,-0.0459754767282683,-0.0171252877024869,-0.0822158408852384,0.0688946614191193,-0.106574005703856,0.140552057380789,0.166136866141912,0.0303011008327629,0.0931675593201004,0.0361902867898699,-0.116044492356833,0.0495099878621948,0.0403812501711157,0.125826496144193,-0.0578405085557837,-0.0154263944330367,-0.219533375450605,-0.0777093513803331,-0.0916011087725302,-0.00666704139858543,-0.058653267168606,-0.0154895293406343,-0.050797871321013,0.08138974406799,-0.0968331784166096,-0.0639313828428017,-0.0612357125256674,0.0926893269450148,0.00827637177732146,0.106826749144422,0.15812150316564,0.143148094934976,-0.14358404745608,-0.112734615674196,0.12644364566507,0.0282506019735341,0.0903435616130504,-0.0744830398129135,0.0872047203855807,-0.0775733385808807,-0.00152745094684006,-0.07907106091718,-0.116465405836185,-0.123235041010723,0.0588895967373945,0.019306239755875,-0.0995541164042893,0.0354275417294091,-0.0916057805156286,-0.0387646711156742,-0.088778309057723,-0.0811278325005704,0.063027059890486,-0.0119790758612822,0.06334021724846,-0.149066267624914,0.0694808382386493,-0.0277584403604837,-0.267304734610997,-0.0715617502851928,0.0546085366643851,-0.114794553775953,0.119623411362081,0.123828048813598,0.0311931066621036,-0.101521104243669,-0.0924762680812229,-0.0229454890257814,-0.0683018135409537,0.00652336367784622,0.0362924659479808,-0.138161498060689,0.00619948117727585,-0.0147500526579968,0.000192447068218118,-0.0291451955281771,-0.0180831762377367,-0.0157123402920374,-0.0188128583162218,0.0319202019164955,-0.0700497072324892,0.0141253547570158,0.0241709736481862,-0.0962352851927903,-0.117408341022131,0.13636644461556,0.0800821831279945,-0.0994301597079626,-0.13280529596167,0.00174844992014602,0.0165376131873146,0.0777520319415925,-0.034247041695186,-0.00848995347935204,0.0709628278576318,-0.00681763131188684,-0.0441504526351814,0.036524586470454,0.0575091664385124,-0.00946570659365731,-0.0125631420260096,-0.0965473101756788,-0.0183935492584987,-0.00261459851015286,0.105640692676249,-0.0269285115788273,0.064441881131645,0.0895508483915127,-0.0624955587953457,0.0291665416381474,0.0124818121149897,0.0425825485626283,-0.0970505487109286,0.0790260130047913,0.1175030936094,0.148475177960301,-0.0519319671457906,0.0590778503308236,-0.054755879865389,-0.137946408852384,-0.0470723971024413,0.0479703553502168,-0.00158216872005475,-0.0169194546543463,-0.198387760780287,0.0211966639288159,-0.0417945011407712,-0.0484207948893452,-0.0845423906000456,0.0456160418206708,-0.0112363677846224,-0.0557587641797855,-0.0633474389687429,0.0620038758270591,0.000378957357973994,-0.0625696140200776,0.0535285263518138,0.03753280727812,0.0941560368126854
"Communion",-0.201068008305184,-0.123711364451461,0.0473458484212072,-0.131684657071523,0.0395664944778969,0.00873735739462477,0.0934100561536202,-0.0383578916434131,-0.0381176857835218,-0.0746092703774416,0.0940870369070348,0.0757821538405052,0.105739030077838,0.0235357653106183,0.0430575904684976,0.129531588647378,-0.0482259814069614,-0.121177571295344,-0.0892468846379792,0.0876444815685123,-0.0485740047730944,0.102646351395212,-0.0813561583198708,0.1151284755691,0.0805135893963871,0.124688345865766,-0.0395705867234543,0.0559662060508151,0.0663616910412689,-0.0475369197385813,0.0239612357174328,0.0280521449552063,-0.110329317315318,0.0235296276839477,-0.020100856146277,0.125763742063152,0.222946424144515,0.0645325665295932,0.148934321324717,-0.0221598475106477,0.0627748790130709,0.0289220496886474,0.0926960592010574,0.0477165007343222,0.00995294698927889,-0.00968263692172124,0.145228092392422,0.0613301440373036,0.0413414864884711,-0.124182623292701,-0.0563871346893817,-0.00843035746071377,-0.112643475848142,0.161183645542664,-0.0161995771772654,0.0364924676310765,0.0408929552063445,-0.0360494798795712,-0.0133579756939345,-0.126596409164341,0.103440809575562,0.000272891173446909,0.0650053689161404,-0.058965553436628,0.118936882714055,0.0326919910265825,0.13537504359671,0.170756730503745,0.0107419960713761,0.183698036495814,-0.0372612263915406,-0.0319188860331914,0.0908037807313849,0.048437711367308,0.155935034953738,0.0210319237700103,0.0449941973858129,-0.00967575914231164,0.110322487760317,-0.0168408806726392,0.039748631957703,0.215825589888383,-0.0136877910412689,-0.136826565090322,-0.0794706627258041,0.0302683927889558,-0.0373798419738581,-0.0707289935379645,0.00894968916140403,-0.0181770265824644,-0.0203428872081069,0.0417992524306066,-0.129921502440153,0.00367500190923777,0.064441201057424,-0.181438626450286,0.00515877280070496,-0.0450501263034219,-0.180984369290645,0.00588799147451903,0.209309254662946,-7.87100602144247e-05,0.00951686422382142,-0.161222352555441,0.111523592304303,0.147621402114848,-0.0338207756645616,0.019281430239389,-0.0987316223380819,-0.0305606169775297,-0.0606749004259069,-0.0112017446027317,0.163598464032898,-0.0254457164781906,0.0395520649140843,0.0646365955353209,-0.0285877162872669,-0.102525508826553,0.00104298935232781,0.106375352136878,-0.0980751186003819,0.130888397121457,0.18796606629461,0.0478653176677926,-0.0840998405786459,0.0317886462035541,0.0517317059039507,0.184898279042444,-0.0471714304964018,-0.0485497493244236,-0.028154621941548,-0.0669923778822147,0.0146424061389338,0.082017101189602,0.031688949471288,0.0558277469819357,-0.0124454253928624,-0.0123382199662212,0.0542227830371567,-0.15073489076957,-0.076739206344544,0.0818520717432809,0.080868560375973,-0.0754348082684682,0.0835459889117345,-0.143670638272874,-0.085352708327214,-0.0828149098546042,-0.15507570768101,0.0405103477603172,-0.082671691804964,-0.137772253341166,0.0613473411147011,0.203714003451314,0.23421552247026,-0.0087784540681451,0.0455435292260244,-0.144035647745631,-0.048873153767073,-0.02471091387869,-0.034500450726979,0.0547022827874871,0.115386052724335,-0.028354894580702,0.0795575650609487,0.0340265461888677,0.0368677112645029,-0.0551988660743134,0.0654749698340432,0.124467184535174,0.0818910742546629,-0.164228787046556,-0.0650197790130709,0.0435275436187399,0.137000755030107,0.0859704231164635,0.0424204924511676,-0.142944922235277,-0.0041027123366133,0.116506961154355,-0.0294558485680717,0.0187319338375679,0.081716442796299,0.053411111102952,-0.107222558745778,0.00420908775150537,-0.0828887199295051,0.0730559094580702,-0.0770202649434572,0.0567565263621677,-0.0108388293435159,-0.152342070491262,0.0515289784329564,0.0149157133940373,-0.0683167586282861,-0.0480465337347628,0.0601029992113379,0.172041460229109,-0.0689334647965927,-0.0842716578352181,0.155961188280217,-0.0869324131296813,0.159220220443531,-0.0657903718783962,0.0661995247613453,-0.0496164410339257,0.0803782520707887,0.0978092464238508,-0.0919861503891908,-0.0820081536202085,0.143784279997063,0.056070707401968,-0.169127743868409,-0.0418071990453811,0.0137004249522691,-0.0323763115582318,-0.0549289441915112,-0.0492214444852401,0.0121577049052724,-0.0535677530694669,-0.00652051755030106,-0.0350672714201792,-0.138319948861801,0.0774968909531503,-0.0983630904244382,-0.0256919656337201,-0.00792720725510354,-0.0597998679394918,0.0311826235203407,0.0601261047657512,-0.181284608092231,-0.0189712656777794,0.039992935526509,0.031768790351006,0.0102332585695403,0.0551953413864004,-0.0199574957409311,-0.0749554806873256,-0.128527360478778,0.166405186591276,0.0401129004259069,-0.00302190269496255,-0.0645164988838302,0.108003747540021,0.144333437362315,-0.0676614081803495,-0.0410942897194889,0.113119215398737,0.00468406373916875,0.0469917079453664,0.150272650499339,-0.0948795526362168,0.132020612938758,0.0518823966074313,-0.0735378881480394,0.0349099482302834,0.117360322865032,0.0507697659715083,0.00910516544573359,0.0159336047143487,-0.0356221580995741,0.0817165308415333,0.162911231458364,0.000468509311205753,-0.182997699601263,0.0118250104273755,0.108304911293876,0.00945943354383904,0.167662724262006,-0.00106522066382729,0.155174144441181,-0.245099988324277,0.177484326677926,-0.13895320681451,0.0029025612424732,-0.0364174178895579,0.170909640916434,-0.0474822352034073,0.146235587090615,0.0347885791011896,0.067604385592598,-0.0315220852548098,-0.0694331522249963,0.115971389264209,-0.0388510623366133,0.0268927515787928,0.0541926347481275,0.0666900609487443,0.0534973098839771,-0.031622714936114,0.0618375053018064,0.0650590096196211,-0.069936179908944,0.015116916918784,0.0997026571449552,0.0176208502570128,-0.205860307446027,0.049288760904685,0.0542486397048025,-0.0184187095755618
