"","V1","V2","V3","V4","V5","V6","V7","V8","V9","V10","V11","V12","V13","V14","V15","V16","V17","V18","V19","V20","V21","V22","V23","V24","V25","V26","V27","V28","V29","V30","V31","V32","V33","V34","V35","V36","V37","V38","V39","V40","V41","V42","V43","V44","V45","V46","V47","V48","V49","V50","V51","V52","V53","V54","V55","V56","V57","V58","V59","V60","V61","V62","V63","V64","V65","V66","V67","V68","V69","V70","V71","V72","V73","V74","V75","V76","V77","V78","V79","V80","V81","V82","V83","V84","V85","V86","V87","V88","V89","V90","V91","V92","V93","V94","V95","V96","V97","V98","V99","V100","V101","V102","V103","V104","V105","V106","V107","V108","V109","V110","V111","V112","V113","V114","V115","V116","V117","V118","V119","V120","V121","V122","V123","V124","V125","V126","V127","V128","V129","V130","V131","V132","V133","V134","V135","V136","V137","V138","V139","V140","V141","V142","V143","V144","V145","V146","V147","V148","V149","V150","V151","V152","V153","V154","V155","V156","V157","V158","V159","V160","V161","V162","V163","V164","V165","V166","V167","V168","V169","V170","V171","V172","V173","V174","V175","V176","V177","V178","V179","V180","V181","V182","V183","V184","V185","V186","V187","V188","V189","V190","V191","V192","V193","V194","V195","V196","V197","V198","V199","V200","V201","V202","V203","V204","V205","V206","V207","V208","V209","V210","V211","V212","V213","V214","V215","V216","V217","V218","V219","V220","V221","V222","V223","V224","V225","V226","V227","V228","V229","V230","V231","V232","V233","V234","V235","V236","V237","V238","V239","V240","V241","V242","V243","V244","V245","V246","V247","V248","V249","V250","V251","V252","V253","V254","V255","V256","V257","V258","V259","V260","V261","V262","V263","V264","V265","V266","V267","V268","V269","V270","V271","V272","V273","V274","V275","V276","V277","V278","V279","V280","V281","V282","V283","V284","V285","V286","V287","V288","V289","V290","V291","V292","V293","V294","V295","V296","V297","V298","V299","V300"
"Power",0.289653,-0.04552,0.115933333333333,-0.307070666666667,0.182423333333333,0.07409,0.26926,0.25492,0.171700666666667,-2.07793333333333,-0.0603163333333333,-0.0453166666666667,-0.141786333333333,-0.0689723333333333,0.168666666666667,0.270557333333333,0.301426666666667,0.10435,-0.35028,0.09075,0.099136,-0.05993,0.187642466666667,-0.255706666666667,0.00125733333333333,0.121985666666667,-0.195613333333333,0.261937666666667,-0.233247966666667,0.298596666666667,-0.0192793333333333,-0.112986,-0.148710666666667,-0.03153,-0.640073333333333,0.0178806666666667,0.244633333333333,0.421280666666667,-0.112533713333333,-0.0367133333333333,0.00749433333333333,0.00406333333333331,-0.311033333333333,-0.432326666666667,0.19945,-0.121893666666667,0.160604666666667,-0.0257483333333333,0.107363333333333,0.39119,0.154406433333333,0.0249447333333333,0.0137606666666667,-0.225943333333333,0.281306666666667,0.0996043333333333,0.405073333333333,0.210118333333333,0.32448,0.44164,0.168239666666667,0.216671333333333,0.0876766666666667,0.109807666666667,-0.152618,0.018377,-0.544803333333333,0.363463666666667,0.0631553333333333,0.348917666666667,0.149176666666667,0.265126666666667,-0.330363333333333,-0.196922666666667,0.0354903333333333,0.0990886666666667,-0.651882666666667,-0.346277666666667,-0.226323333333333,0.0309593333333333,0.104516666666667,-0.229460666666667,-0.0753766666666667,0.111982,-0.012325,0.128460666666667,-0.373116666666667,0.389276666666667,-0.14101,0.19484,-0.116926666666667,-0.127366666666667,0.13902,-0.215273333333333,-0.368866666666667,-0.52103,-0.38191,-0.110019,0.248844666666667,-0.12445,-0.276760666666667,0.103176666666667,-0.298237666666667,-0.408223333333333,0.144285233333333,0.0443713333333333,0.00442666666666665,0.22314,-0.252826666666667,0.194663333333333,0.34651,-0.515983333333333,-0.256143333333333,0.063554,-0.00836666666666668,0.33826,0.0740833333333333,0.133536,0.0931083333333333,-0.423073333333333,0.148659333333333,-0.274146666666667,-0.0710773333333333,-0.32246,-0.231956666666667,-0.191935666666667,0.261488,0.0922533333333333,-0.0431608666666667,0.45544,-0.0166323333333333,0.319343333333333,-0.1204573,0.0833613333333333,0.0437176,0.167663,0.0151166666666667,-0.513703333333333,0.130636666666667,0.0950223333333333,-0.32068,0.406927833333333,0.108451666666667,0.076271,-0.241046666666667,0.173794833333333,-0.157488666666667,-0.201730666666667,-0.176146666666667,-0.0129066666666667,0.33308,-0.135394,0.150189666666667,0.00768299999999999,0.740263333333333,0.394759666666667,0.29594,0.148796666666667,-0.0728633333333333,-0.124315333333333,0.182532666666667,-0.32532,0.282167,0.115546666666667,-0.0215456666666667,-0.08421,-0.499156666666667,-0.295747333333333,-0.289916666666667,0.576016666666667,-0.0466233333333333,0.044056,-0.521131666666667,0.0646593333333333,0.237973333333333,-0.0550946666666667,-0.0166846666666667,0.166023333333333,-0.06547,0.2248997,-0.441636666666667,0.087977,0.2409123,0.238196,0.0828766666666667,0.162860666666667,0.304033766666667,-0.043051,0.132971666666667,-0.0784333333333333,-0.20893,0.0193801666666667,-0.0760033333333333,-0.0536933333333333,0.32208,-0.0132116666666667,-0.175165,0.0687203333333333,0.354916666666667,0.129922,0.77109,0.258626666666667,0.262,-0.242663333333333,-0.388733333333333,-0.0741333333333333,-0.262656666666667,0.36213,-0.159096666666667,0.348704333333333,-0.041331,-0.0362116666666667,0.437726666666667,-0.239576666666667,0.441683333333333,-0.178963333333333,0.0729403333333333,0.0824623333333333,-0.144455566666667,0.12003,-0.341173333333333,-0.0380906666666667,0.208606666666667,-0.0394566666666667,-0.32579,0.188556666666667,-0.233213,0.428623333333333,-0.0390856666666667,-0.273114333333333,0.00143633333333333,-0.249186666666667,0.0982233333333333,0.0306125333333333,-0.185867333333333,-0.295,-0.076877,0.136279333333333,-0.0194456666666667,0.142796666666667,0.340866666666667,0.186485333333333,0.37523,-0.02409827,-0.610626666666667,-0.3382186,0.1185,-0.112346776666667,0.00414100000000001,0.0385516666666667,0.150537966666667,-0.154716666666667,-0.257686666666667,-0.187223333333333,0.03885,-0.151808333333333,-0.139750333333333,-0.336541333333333,0.06985,-0.109013333333333,-0.029116,-0.162150666666667,-0.108963333333333,0.280485666666667,-0.227643333333333,0.167053333333333,0.00645100000000001,-0.0706033333333333,0.0397266666666666,0.0292266666666667,-0.304376666666667,-0.13403,-0.0560993333333333,-0.276065333333333,-0.194655,0.137214,-1.74136666666667,0.147023666666667,0.372553333333333,0.0189833333333333,-0.04223,0.0303396666666667,0.0467387333333333,0.151422,0.183,-0.1821,-0.339653333333333,0.155816666666667,-0.0645866666666667,-0.0534685666666667,-0.501266666666667,-0.0514666666666666,0.0549516666666667,-0.357086666666667,0.236121,0.936816666666667,-0.2330947,-0.56404,0.0277176666666667,-0.124066666666667
"Achievement",0.312427666666667,0.380786666666667,0.339928,-0.199358666666667,0.236655933333333,0.229493666666667,-0.123254,-0.2727,-0.258295666666667,-1.10148666666667,0.608716666666667,0.146353333333333,-0.40173,0.168392333333333,-0.0161346666666667,-0.0247076,0.364537666666667,-0.162971,-0.120647333333333,-0.111901333333333,-0.09602,0.214856666666667,-0.283343,0.110326666666667,-0.068431,0.168964333333333,0.00950983333333334,-0.0295906666666667,0.355450666666667,-0.152385333333333,0.179366,-0.470373333333333,-0.411763333333333,-0.10066,-0.717776666666667,0.235979,-0.458683,0.293606333333333,0.252840133333333,-0.237544,0.144204733333333,-0.332036666666667,-0.164670666666667,-0.11169,-0.0359586666666667,0.380823333333333,-0.117530666666667,0.5332,0.323333333333333,-0.452390366666667,0.378433333333333,0.155053333333333,0.174996333333333,-0.120536666666667,-0.109568666666667,0.581406666666667,-0.110043333333333,-0.102179366666667,0.229138,0.327716666666667,0.269126666666667,-0.237409766666667,0.145301666666667,-0.247065333333333,0.0933433333333333,0.176636533333333,0.005286,0.50161,-0.139545,0.133496666666667,-0.180618333333333,-0.133624976666667,-0.0372033333333333,0.024685,-0.1022,-0.125163,-0.246218333333333,0.148116,0.0121756666666667,0.325196666666667,-0.270946666666667,0.344463666666667,0.434773333333333,-0.018744,0.37876,0.12969,-0.0842016666666667,-0.360953333333333,0.04199,-0.0414046666666667,0.2133,-0.223173333333333,0.07262,0.354753333333333,0.220020333333333,-0.341966666666667,0.0669043333333333,-0.131864,-0.265166666666667,-0.21839,-0.0239866666666667,0.224692333333333,-0.0842133333333333,0.118025333333333,-0.0472233333333333,-0.0377546666666667,-0.0727446666666667,-0.130034333333333,0.14635,-0.240231,0.0770913333333333,0.311844,0.25597,-0.298016666666667,0.192426666666667,-0.270597833333333,0.177726666666667,-0.211053333333333,-0.0171656666666667,-0.259929066666667,0.0424886666666667,0.244853666666667,0.243385,0.253616666666667,0.268563333333333,-0.426036666666667,-0.115011666666667,0.02256,-0.100739933333333,0.36059,-0.145473666666667,0.0393633333333333,0.0616773333333333,-0.161988,-0.0188459333333333,0.117577,-0.0635313333333333,-0.0635383333333333,0.140052666666667,0.0271516666666667,-0.024104,-0.0764366666666667,0.415250666666667,-0.163524333333333,0.46286,-0.391434666666667,-0.257593333333333,0.195236666666667,-0.334193,-0.0733046666666667,-0.137715,-0.0768166666666666,0.14478,-0.0231152666666667,0.135009,0.28886,-0.0590936666666667,0.344043,-0.00244233333333332,0.066986,0.130617,-0.038018,0.011316,0.352056666666667,0.23013,-0.205566666666667,-0.326246666666667,-0.23771,-0.16184,0.10354,0.37268,-0.392313333333333,-0.673096666666667,-0.509263333333333,0.42663,0.0501133333333333,-0.375043333333333,-0.371556666666667,0.11819,0.331431333333333,-0.134599666666667,-0.26806,0.213793666666667,-0.027901,0.192595333333333,0.0661845666666667,-0.186843333333333,-0.187486666666667,-0.432506666666667,0.212376,-0.253655333333333,-0.258899333333333,0.240246666666667,-0.0180901,-0.0693813333333333,0.0643376666666667,-0.228531666666667,0.1322586,0.110688666666667,-0.111707,1.34333333333333,-0.098523,0.03138,-0.199773333333333,-0.290143333333333,0.072879,0.207945333333333,0.361156666666667,-0.00999133333333333,0.0245763333333333,-0.02724,-0.297963333333333,-0.173782666666667,0.0317576666666667,0.154546666666667,-0.152213333333333,-0.15346,0.1943774,0.0905006666666667,-0.228496666666667,-0.311697666666667,-0.181892333333333,-0.212226333333333,0.269218666666667,-0.224275,-0.38837,-0.216036,0.0310081666666667,-0.118875666666667,0.127596666666667,0.000677000000000004,0.134592666666667,-0.127194,-0.39135,-0.682763333333333,0.120114333333333,0.221188,0.302813333333333,0.151106,-0.141260666666667,0.191423666666667,-0.004923,0.0386023333333333,0.0893506666666666,-0.834956666666667,0.0491866666666667,-0.158881,0.157615666666667,-0.0679133333333333,-0.165973333333333,0.114306666666667,-0.267333666666667,-0.35964,-0.215323333333333,0.049256,-0.326533333333333,-0.0169196666666667,0.218966333333333,-0.149289666666667,0.11595,0.448048,-0.171052333333333,0.38758,-0.0391296,-0.0392276666666667,0.383303333333333,-0.0996453333333333,-0.194396666666667,0.098188,0.063745,0.023605,-0.0601153333333333,0.136311333333333,-0.202185333333333,-0.06914,-0.0705656666666667,-1.06492,-0.21934,0.54021,-0.52772,0.0636033333333333,0.00829833333333333,-0.1729946,0.282406666666667,0.0821363333333333,-0.03542,-0.219978666666667,0.00517533333333334,0.276414333333333,0.0811033333333333,-0.447596666666667,-0.0557036666666667,-0.0253136666666667,0.0964133333333333,0.199248266666667,0.661473333333333,-0.168265666666667,0.05374,-0.302983333333333,-0.243744333333333
"Hedonism",0.323493333333333,0.106593333333333,0.249397333333333,0.076858,-0.000312333333333335,0.224276666666667,0.799146666666667,-0.116817,-0.42384,-0.730126,-0.018697,-0.328607333333333,-0.224999,0.204238333333333,-0.0520263333333333,0.309660666666667,0.0443816666666667,0.140675666666667,0.248806666666667,0.0486433333333333,0.146282666666667,0.270716666666667,-0.106071,0.0482633333333333,-0.299103333333333,0.130059,-0.00178033333333333,0.228576666666667,0.785616666666667,-0.039504,-0.330886666666667,0.157423333333333,-0.48475,-0.286736366666667,-0.508686666666667,0.330708,-0.415605,-0.35336,0.00789813333333333,-0.154841666666667,-0.210874333333333,0.140045666666667,-0.338538,0.08722,0.196956,0.1281665,0.77497,0.165251666666667,0.19289,-0.088172,-0.0875513333333333,-0.262608666666667,0.438316666666667,0.110237233333333,-0.205823333333333,0.212823333333333,-0.255501333333333,-0.0373643333333333,0.299118333333333,0.59702,0.200366666666667,-0.102476666666667,0.21383,-0.111044666666667,-0.142278,-0.07316,-0.607693333333333,0.293813333333333,-0.208308266666667,0.0952596666666667,-0.1259552,0.13749,0.135282333333333,-0.0755596666666667,0.0346256666666667,-0.00185,0.0150066666666667,0.0276566666666667,-0.0904966666666667,0.187864,0.089449,0.26551,-0.0403866666666667,0.037489,0.31996,-0.119053,0.0622456666666667,-0.167879666666667,0.0692393333333333,-0.0602303333333333,0.219985,-0.323019333333333,-0.07646,-0.141256,-0.0609333333333333,-0.179733333333333,0.338749666666667,-0.29974,0.123190666666667,-0.32779,-0.0229666666666667,-0.0555576666666667,0.0449537666666667,0.105384333333333,-0.191437,0.160486666666667,0.10886,-0.461858666666667,0.0850544,-0.106600933333333,0.363283333333333,0.095432,0.205500333333333,-0.0674166666666667,0.41188,0.39387,0.21933,0.189673333333333,-0.0573833333333333,-0.0104133333333333,-0.06921,-0.30497,0.137686333333333,0.448623333333333,-0.173505666666667,-0.630903333333333,0.158627666666667,0.114454666666667,0.138938866666667,0.285826666666667,0.0496733333333333,0.183336333333333,-0.00165526666666667,-0.105003333333333,-0.606883333333333,0.269686666666667,-0.231600666666667,-0.253884333333333,-0.340328333333333,-0.02742,-0.186296666666667,-0.177886333333333,0.204413333333333,0.550788333333333,0.405866666666667,-0.345373333333333,0.245801,-0.0432676666666667,-0.436573333333333,0.2538761,-0.124616666666667,0.473703333333333,0.00813642333333333,-0.15369,0.150031,-0.125688333333333,-0.368743333333333,0.316131,-0.0869376666666667,-0.252039333333333,0.594533333333333,-0.118241333333333,0.09011,0.161544333333333,0.160568333333333,0.0983966666666667,0.153583333333333,0.176669566666667,0.249798333333333,0.169906666666667,-0.515770666666667,-0.503073333333333,-0.362026666666667,0.244971666666667,-0.280405333333333,-0.0320683333333333,-0.282473333333333,0.04291,0.15403,0.112926666666667,0.261959566666667,-0.123487,-0.156567333333333,0.0501963333333333,0.187623,-0.0770403333333333,0.315166666666667,-0.135126666666667,-0.06151,0.130161,-0.0708966666666667,-0.269669333333333,-0.201386666666667,-0.183915,-0.133476666666667,-0.0778706666666667,-0.279645,0.151915666666667,0.0995366666666667,0.0338353,0.541616666666667,-0.303597333333333,-0.264253333333333,0.150636,0.0723013333333333,-0.0311473333333333,0.173881,0.48791,-0.264356666666667,-0.354973,-0.104783333333333,0.03193,-0.18476,0.106106666666667,0.019078,-0.00281833333333333,0.118176666666667,-0.221199,-0.0956601666666667,0.137053266666667,0.226696666666667,-0.075538,-0.18028,0.351496666666667,-0.399746666666667,0.00232,0.326748,0.170407,-0.146133333333333,-0.257016666666667,-0.0786766666666666,-0.299253333333333,0.221236666666667,0.104148266666667,0.60987,0.0781633333333333,0.168946,0.0807838666666667,-0.65534,-0.023461,-0.068794,0.059984,-0.12187,0.317393333333333,-0.164451333333333,0.00106733333333333,-0.0442733333333333,0.237245,-0.285173333333333,0.140566,0.0497613333333333,0.373946666666667,0.421753333333333,0.139824,-0.245286333333333,-0.0500506333333333,-0.072245,-0.190276666666667,-0.0819,-0.197373333333333,-0.111554266666667,-0.608553333333333,0.101406666666667,-0.171426666666667,-0.15040703,-0.157688,0.0158957266666667,-0.353856666666667,0.209289333333333,-0.099327,0.381792333333333,-0.54861,0.231963333333333,-0.368143333333333,0.261924666666667,0.070792,-1.07518333333333,0.182245,-0.135391666666667,-0.341296,-0.266686,0.239573333333333,-0.228913333333333,-0.07704,-0.158328,-0.0674433333333333,0.00309566666666666,-0.079391,0.39287,0.0604086666666667,-0.33432,0.0998463,-0.260023,-0.0897533333333334,0.19938,-0.27247,-0.42095,0.439986666666667,0.224376666666667,-0.272294
"Stimulation",0.1593557,-0.0699861,0.0882133333333333,0.0270766666666667,0.0846756666666667,0.310972333333333,0.53105,-0.269964333333333,0.009976,-0.303506666666667,0.38873,-0.12522,0.0192256666666667,-0.0357266666666667,-0.0429238666666667,-0.0732936666666667,-0.185089,0.0976623333333334,0.0462036666666667,0.41105143,0.297043533333333,0.50162,-0.129588333333333,0.0282,-0.222129333333333,0.2992188,0.0508233333333333,0.0613466666666667,0.309905,-0.0634863333333333,-0.387713333333333,-0.419606666666667,-0.668176666666667,-0.514836666666667,-0.48192,0.256486666666667,-0.779326666666667,0.113886666666667,0.353903333333333,-0.0670756666666667,0.140342666666667,-0.203473333333333,0.048455,-0.0913650333333333,0.352897333333333,0.06152,0.556123333333333,-0.569976666666667,0.522666666666667,-0.00601333333333335,0.22321,-0.0164116666666667,-0.24033,0.281791666666667,0.229089,0.443892666666667,-0.123583333333333,-0.201625333333333,0.405236666666667,0.40446,0.36833,-0.136499666666667,0.357666666666667,-0.298012666666667,-0.0631938666666667,0.0890633333333333,-0.0294841333333333,0.249063,0.303056666666667,0.232122,-0.0882476666666667,0.292056666666667,0.10277,0.208914333333333,0.104876666666667,-0.114928666666667,-0.0592496666666667,-0.069877,0.139980666666667,0.341593333333333,0.112154,0.08113,0.0324966666666667,-0.183123333333333,0.171813333333333,-0.0576943333333333,0.182123666666667,-0.258126666666667,0.272264,0.30467,0.220746666666667,0.0447783333333333,-0.0883762766666667,-0.0659656666666667,0.0419333333333333,-0.0735866666666667,-0.187284366666667,-0.279073333333333,-0.128273333333333,-0.321006666666667,0.0569887666666666,0.195703333333333,-0.228417,0.0942886666666667,0.10711,-0.09696,-0.396926666666667,-0.22105,-0.155428333333333,0.247326666666667,0.095185,0.122476666666667,-0.0697423333333333,-0.00777670000000002,0.431918333333333,0.0924633333333333,0.121736666666667,0.535126666666667,0.282786666666667,-0.0788206666666667,0.0634656666666667,-0.205666666666667,0.103988166666667,0.390455666666667,0.171802333333333,-0.410759,0.556456666666667,-0.0434736666666667,-0.245389666666667,0.476293333333333,0.11377,0.008965,0.256452,-0.286730666666667,-0.567776666666667,0.141463666666667,-0.139683333333333,-0.0169166666666667,-0.0352150333333333,0.19253,-0.261425133333333,-0.261331333333333,0.156622333333333,0.532806666666667,0.359803333333333,-0.235562666666667,-0.147686666666667,0.135056733333333,-0.377736666666667,0.0779933333333333,-0.271568,0.18586,-0.318306666666667,0.0196166666666667,0.0293766666666667,-0.50438,-0.168689,0.173680666666667,-0.159147333333333,-0.106063333333333,0.197795666666667,-0.647463333333333,-0.300783,0.2407,0.558333333333333,0.1322552,0.102333,0.351193333333333,0.208955333333333,-0.195743333333333,0.0782393333333333,-0.201455666666667,-0.533623333333333,-0.103741686666667,0.13743,-0.0648966666666667,-0.262483,-0.074201,0.0950883333333333,-0.164468666666667,-0.2052312,0.00909,-0.0809206666666667,-0.0969933333333333,0.0660296666666667,0.276713333333333,0.656216666666667,-0.242667,-0.133281,0.261092666666667,0.0789063333333333,-0.439176,-0.191042333333333,-0.00540466666666667,0.0121236666666667,0.0380743333333333,-0.62993,0.00699506666666666,-0.152303333333333,0.207000333333333,0.434377333333333,0.0715187333333333,0.0331866666666667,0.12401,0.03533,0.170294666666667,0.0960866666666667,0.54205,-0.170396066666667,-0.0938466666666667,-0.102346666666667,-0.40751,-0.0223306666666667,0.089233,-0.11524,-0.120629333333333,-0.371093333333333,-0.00722999999999999,-0.261688666666667,-0.0889378033333333,-0.414533333333333,-0.0643366666666667,-0.250976666666667,-0.181063333333333,0.00322666666666666,-0.345426666666667,0.226956666666667,-0.134373333333333,0.06612,-0.02922,-0.0184376666666667,-0.07248,-0.206893333333333,-0.397456666666667,0.158076666666667,0.0406676666666667,0.35725,0.0680266666666667,-0.296706333333333,0.167598666666667,0.39774,0.108349266666667,-0.38815,0.468222666666667,-0.308056666666667,-0.472176666666667,-0.0508141666666667,0.14899,-0.0733993333333333,-0.268496666666667,-0.0509343333333333,-0.1366556,-0.0234903333333333,-0.223884,-0.416246666666667,-0.03434,0.45777,-0.1426624,-0.206236666666667,-0.230504666666667,0.169703666666667,-0.747313333333333,0.480566666666667,0.197072666666667,-0.059851,0.0118123333333333,-0.363306666666667,-0.196236666666667,0.339026666666667,0.163512,0.0537943333333333,-0.216526133333333,0.285956666666667,-0.5629,0.13205,0.226377,-0.81457,-0.199601,-0.00982333333333332,0.0813333333333333,-0.308241,0.354876666666667,-0.320396666666667,0.220976666666667,-0.215873333333333,-0.324296666666667,-0.213243333333333,0.16925964,0.147486666666667,0.236476333333333,-0.059395,0.0600766666666667,0.119819166666667,0.155526666666667,-0.119173666666667,-0.43843,-0.1856,0.611456666666667,0.207744666666667,-0.0340966666666667
"Self direction",-0.0418533333333333,-0.677046666666667,-0.175508,-0.0616493333333333,-0.267283333333333,-0.12609,0.276423333333333,0.58094,0.48131,-1.13951,-0.156726666666667,-0.0174013333333333,-0.0374076666666667,-0.0754526666666667,0.200062,0.686703333333333,0.498276666666667,0.401499,-0.091522,0.0451213333333333,0.15186,0.165583666666667,0.285133333333333,-0.300323333333333,-0.0666066666666667,-0.0793163333333333,-0.232467666666667,0.349616666666667,-0.398726666666667,0.0750246666666667,0.4542,0.079571,-0.22822,-0.373453333333333,-0.55445,0.083888,-0.0612486033333333,-0.099902,0.117555333333333,-0.347266666666667,-0.06734,-0.10257,0.135639666666667,0.192916666666667,-0.02734,-0.313866666666667,0.024746,0.219983333333333,0.0246066666666667,0.334956666666667,0.20442,-0.182006333333333,0.207710333333333,-0.254836666666667,0.59688,0.122661666666667,-0.05631992,0.329525333333333,0.251025333333333,0.1696959,0.0679333333333333,-0.22934,-0.396533333333333,-0.0189193333333333,-0.0182796666666667,0.12553,0.344855666666667,0.30078,0.238433333333333,-0.110239333333333,0.00635966666666667,-0.0732538666666667,-0.194765333333333,-0.0767323333333333,0.0601,0.50605,0.179986666666667,0.172186666666667,-0.028794,0.185103,-0.172806666666667,0.322086666666667,0.235980333333333,0.40466,-0.0558066666666667,-0.31066,0.321667333333333,0.180943333333333,0.0634566666666667,0.245630333333333,-0.264765,-0.687163333333333,-0.34832,0.424693333333333,-0.424063333333333,-0.173742333333333,0.092,0.06285,-0.57445,0.167003333333333,-0.21173,-0.21024,-0.109971,0.0870593333333333,0.229696666666667,0.295173,0.020456,0.132993333333333,0.299929,-0.00573033333333333,0.471528333333333,0.310333333333333,0.348973333333333,0.045556,-0.0155653333333333,-0.127309,0.156165666666667,0.36793,-0.216474333333333,0.0351616666666666,0.0740136666666667,0.142516666666667,0.478586666666667,0.021424,0.160704,-0.52114,-0.0218613333333333,0.248014666666667,-0.157906666666667,0.448966666666667,-0.508512666666667,-0.239038233333333,0.18138,-0.539226666666667,-0.0299106666666667,0.46962,0.097065,-0.36869,0.04876,0.087334,0.115036666666667,0.292942,-0.006838,0.268016666666667,-0.166844666666667,-0.280407,-0.583416666666667,0.025103,-0.364986666666667,0.034866,0.418116666666667,-0.00835366666666668,0.191476666666667,0.0615066666666667,0.23268,0.263771666666667,-0.37684,0.71097,-0.33786,-0.189533333333333,0.219395466666667,0.165779333333333,-0.318863333333333,0.105513333333333,-0.379303333333333,-0.0184746666666667,0.02144,-0.29965,-0.410896666666667,0.16757,-0.0909233333333333,-0.17098,-0.580166666666667,0.484013333333333,0.0521,-0.36852,-0.242136,0.0223586666666667,-0.099973,0.333366666666667,0.08822,-0.159371333333333,0.348963666666667,-0.2843,-0.226006666666667,0.55424,-0.321016666666667,0.137277333333333,-0.335527333333333,0.18427,0.117108666666667,-0.386713333333333,0.082327,0.0235893333333333,-0.403924,0.195570333333333,0.113509333333333,-0.618016666666667,0.21896,0.496096666666667,1.07344666666667,0.069107,-0.0699796666666667,-0.0767696333333333,0.149575666666667,-0.288346666666667,0.132328333333333,0.364913333333333,0.43925,0.596273333333333,0.166239333333333,0.480773333333333,-0.402674333333333,0.309508666666667,-0.0988733333333333,0.695653333333333,-0.273756666666667,0.19204,0.115989366666667,0.1018956,-0.06471,0.601123333333333,0.276948333333333,-0.00374333333333333,-0.247376666666667,-0.387667,0.37668,0.179122433333333,-0.128343333333333,-0.0434333333333333,-0.436733333333333,-0.392956666666667,0.0219566666666667,-0.0607173333333333,-0.46758,-0.273783333333333,-0.201493333333333,-0.46451,-0.171222333333333,-0.619113333333333,-0.334206666666667,0.205464666666667,0.46639,-0.458866666666667,-0.275926666666667,-0.21633,0.459198,-0.102150333333333,0.246,0.13401,-0.0934966666666667,-0.0465866666666667,-0.42192,0.10059,-0.116804333333333,0.240603333333333,0.08254,-0.58868,-0.069784,-0.0645306666666667,0.0744403333333333,-0.411586666666667,0.314285,0.0739182,-0.00781633333333333,0.378946666666667,-0.00365666666666666,0.0214676666666667,0.11102,-0.11103,-0.226349333333333,-0.620173333333333,0.359113333333333,-0.289265,-0.278693333333333,-0.086081,-1.63086666666667,-0.606743333333333,0.421696666666667,-0.0839776666666666,0.156318333333333,-0.746946666666667,0.0343866666666667,-0.41151,0.0504318333333333,0.186120666666667,-0.053038,0.02379,0.242413333333333,-0.138013333333333,-0.233711,-0.127914666666667,-0.107409333333333,-0.331857,0.025985,0.664603666666667,-0.0668546666666667,0.045689,-0.0151046666666667,0.087779
"Universalism",-0.0368266666666666,-0.32525,-0.201866666666667,-0.0504076666666667,-0.338613333333333,0.190658666666667,0.38644,0.25586,0.17046,-1.43433333333333,-0.28889,-0.0666743333333333,-0.491283333333333,0.141224,-0.462733333333333,0.454979,0.325453333333333,0.0688343333333333,-0.02008,0.1331,0.111512666666667,0.483474333333333,0.303843666666667,-0.0703063333333333,-0.19657,0.370632666666667,0.172216666666667,-0.346843333333333,-0.054737,0.0797203333333333,0.15447,-0.306437333333333,-0.12493,0.0117556666666667,-0.536383333333333,0.0410333333333333,0.393253333333333,0.144829333333333,-0.243788,-0.162186333333333,0.162726666666667,-0.219620333333333,0.0179863333333333,-0.256546666666667,-0.195646666666667,-0.225095333333333,-0.536076666666667,0.291976666666667,-0.0251413333333333,-0.101332333333333,-0.18811,0.178673333333333,0.125616666666667,-0.34587,0.00872766666666666,0.255971666666667,-0.243068333333333,-0.00815666666666667,-0.00768596666666667,0.26434,0.425583333333333,-0.28214,-0.307953,-0.272979333333333,-0.6423,-0.128008666666667,0.218446666666667,-0.00549333333333334,0.114461,-0.0182746666666667,-0.08195,-0.36781,-0.038605,-0.2387059,0.69965,0.314233333333333,0.453556666666667,-0.0585176666666667,-0.17461,0.144365666666667,-0.32986,0.17712,0.136996666666667,0.228813333333333,-0.462743333333333,-0.130181666666667,0.54801,-0.127609516666667,-0.0508843333333333,-0.0739803333333333,-0.683673333333333,-0.493136666666667,-0.04759,0.0266366666666667,-0.0856393333333333,-0.480661666666667,0.0159826666666667,-0.112465333333333,-0.135559333333333,0.068303,0.0826033333333333,-0.240812333333333,0.256199333333333,-0.387296666666667,0.342806666666667,0.36589,0.0272809333333333,-0.148407333333333,0.222763333333333,-0.49571,0.404386666666667,-0.00817173333333333,0.199881,-0.0706806666666666,0.0595266666666667,-0.260173333333333,0.250866666666667,0.158173333333333,0.0370033333333333,-0.152163333333333,-0.040169,0.01389,0.425926666666667,-0.061201,-0.185526666666667,-0.509253333333333,0.417913333333333,0.341192,0.00700333333333333,0.574893333333333,-0.267926666666667,-0.38542,0.311746666666667,-0.137452333333333,0.00648133333333332,-0.125783333333333,-0.0739636666666667,0.00389666666666665,-0.047157,-0.351396666666667,-0.078083,0.136573333333333,-0.113256666666667,0.107266333333333,0.347113333333333,-0.242903333333333,-0.438043333333333,0.330067766666667,-0.352063333333333,0.0494966666666667,0.235533333333333,0.461373333333333,0.282073333333333,0.234685333333333,0.0342786666666667,-0.181883666666667,-0.043342,-0.03828,-0.1159237,0.01863,0.154418,0.130429,-0.202416666666667,-0.0364566666666667,-0.452093333333333,0.100583333333333,-0.120552333333333,0.0667866666666667,-0.20264,0.103564,0.016687,-0.40594,-0.451173333333333,0.48947,0.380886666666667,-0.05914,-0.191648,-0.043788,-0.332473333333333,0.343766666666667,0.220246666666667,0.265068466666667,0.465743333333333,0.00148033333333332,-0.280160333333333,-0.0527686666666667,-0.83588,0.38482,-0.31291,0.524726666666667,0.326293333333333,-0.5721,0.0386083333333333,0.359143333333333,-0.4396,0.7038,0.0685182,-0.237502166666667,-0.33668,-0.220643333333333,0.313604333333333,0.190294,0.252446666666667,-0.217746466666667,-0.284474666666667,0.0188273433333333,0.418313666666667,-0.116352666666667,0.53221,0.598295,-0.04193,0.351206666666667,-0.078239,0.034661,0.205847666666667,0.51834,-0.146204666666667,0.610393333333333,0.389212666666667,0.0721686666666667,-0.231696666666667,0.239167666666667,-0.0784466666666667,0.03624,-0.261481,-0.433446666666667,0.07126,0.108635333333333,0.14277,0.229186666666667,-0.458473333333333,-0.0126526666666667,0.282233666666667,-0.298823333333333,-0.2621,-0.00408333333333333,-0.0998536666666667,-0.326156666666667,0.188508666666667,-0.258670666666667,-0.42743,0.114323833333333,0.198013333333333,-0.00492633333333334,-0.118664,-0.138959333333333,0.39736,-0.155437666666667,0.345986666666667,-0.163773333333333,-0.0552966666666667,0.095014,-0.14078,-0.0584256666666667,-0.08739,-0.243097666666667,-0.269565333333333,-0.497876666666667,0.00120999999999999,0.065892,-0.0113253333333333,-0.214176666666667,0.3024899,0.162986,-0.319908,0.0802333333333334,-0.414323333333333,0.338900333333333,0.35429,0.307183333333333,-0.36666,-0.191836666666667,-0.0755427333333333,-0.039625,-0.382480333333333,0.0204236666666667,-1.18693,0.15872,1.47803333333333,-0.00953870666666667,0.50768,-0.615623333333333,-0.165893333333333,-0.02912,0.287691333333333,0.000195999999999991,0.00171999999999999,0.292345,0.29588,-0.281343333333333,-0.15994,-0.315758333333333,-0.0514666666666667,-0.125876666666667,0.0789572,0.45984,0.143844333333333,-0.163303333333333,-0.290843333333333,0.175483333333333
"Benevolence",-0.204816666666667,-0.277837666666667,-0.1800047,0.07035,-0.195187333333333,0.411963333333333,0.557396666666667,-0.460086666666667,-0.171039333333333,-0.652886666666667,0.385023333333333,-0.204292,-0.0122166666666667,-0.00259566666666667,-0.00827433333333333,0.36215,0.182926666666667,-0.213322666666667,0.0279333333333333,-0.279855333333333,-0.16151,0.154196666666667,-0.265456666666667,-0.33533,0.256086666666667,0.534976666666667,-0.180094666666667,0.318133333333333,-0.142282,-0.212192666666667,0.232206666666667,0.078124,0.144103333333333,-0.304201333333333,-0.2512596,0.0768206333333333,0.027508,0.135843333333333,-0.142062,-0.52934,0.36987,-0.555776666666667,0.253206666666667,-0.16008,-0.0325433333333333,-0.020153,0.227580666666667,0.223156666666667,0.224733333333333,0.066976,0.114852,0.571976666666667,0.436563333333333,0.28838,-0.449246666666667,-0.07609,-0.416870333333333,0.500156,0.33101,-0.259003333333333,0.0924466666666666,0.122472333333333,-0.300723333333333,-0.197706333333333,-0.00350133333333334,-0.0494093333333333,0.261988,-0.135086,-0.291667666666667,0.646453333333333,-0.215456666666667,-0.1268015,-0.0265543333333333,-0.0537358333333333,0.754543333333333,0.00626266666666667,0.01677,0.033029,-0.342763333333333,-0.0865833333333333,-0.0104793333333333,0.50784,-0.188895,0.405893333333333,-0.47141,-0.261808666666667,-0.0518033333333333,-0.138703666666667,-0.111672666666667,-0.0349553333333333,-0.408983333333333,0.143522,0.101851,-0.285796666666667,0.137316666666667,-0.1972,0.406563333333333,-0.149809333333333,-0.247436666666667,0.43653,0.753076666666667,-0.0352303333333333,-0.0107733333333334,0.108883333333333,0.1941,-0.231909666666667,-0.206649333333333,-0.283402666666667,0.19314,-0.0935566666666667,-0.117913333333333,-0.0737933333333333,-0.020922,0.00866666666666665,0.33104,-0.154453333333333,0.186244,0.230793333333333,-0.290692333333333,-0.0504653333333333,-0.536863333333333,0.201169333333333,0.117274,0.472773333333333,0.252876666666667,-0.349463333333333,0.10233,0.00699633333333333,0.0926737333333333,0.300879,0.233958666666667,-0.164534333333333,0.473666333333333,0.220103666666667,-0.539363333333333,0.0247766666666667,0.33832,-0.142146666666667,-0.62502,-0.0857316666666667,-0.029855,0.348143666666667,-0.319806666666667,-0.00561533333333334,0.0656313,-0.225489666666667,-0.422555,0.138437,0.214756666666667,0.0836333333333333,-0.03863,-0.1469184,0.0876,0.112222,-0.0258633333333333,0.54347,0.500173333333333,0.0649483333333333,0.198538333333333,-0.473501,0.11242,0.0989683333333333,0.14378,0.159673333333333,-0.494430333333333,0.150831333333333,-0.084864,-0.149818,0.206859666666667,-0.13888,0.0135940666666667,-0.0417653333333333,-0.151233333333333,0.401723333333333,-0.064659,0.459398666666667,-0.107043,-0.29673,0.165236666666667,0.337256666666667,-0.171613333333333,0.07675,0.137217333333333,-0.047152,-0.260023333333333,0.0882753333333333,-0.17656,-0.0791446666666667,0.233838333333333,-0.277553333333333,0.0151739,-0.464036333333333,-0.199748666666667,0.108256666666667,-0.53245,0.50413,-0.00710526666666666,-0.0833703333333333,0.024413,-0.00649,0.596916666666667,0.164766666666667,0.48266,0.41059,0.00713466666666667,0.221251,-0.02095,0.204233333333333,-0.0229316666666667,-0.255388,-0.384481333333333,0.415383333333333,-0.35396,-0.311726666666667,0.004195,0.380986666666667,-0.0229996666666667,-0.189633666666667,-0.00980343333333333,0.0843566666666667,-0.157846666666667,-0.0890736666666666,-0.586986666666667,0.204736333333333,-0.28047,-0.451193333333333,-0.216393333333333,-0.0281853333333333,0.131863333333333,0.0775633333333333,-0.0531346666666667,-0.47695,0.145723333333333,-0.234534,-0.060703,0.453436666666667,-0.198495666666667,0.02014,-0.480933333333333,-0.0933066666666666,-0.52836,-0.231032,-0.139586666666667,0.192823666666667,0.0323176666666667,-0.138913333333333,-0.433596666666667,0.0410066666666667,0.202986666666667,0.214194666666667,0.195085333333333,0.176013333333333,-0.19508,-0.23536,0.19694,0.309296333333333,-0.157478,-0.175975333333333,-0.099764,-0.23553,-0.0126666666666667,-0.283159,-0.116439,0.111581733333333,-0.366523333333333,0.28973,-0.318651333333333,-0.11486,-0.153193,-0.09819,0.347324,-0.370097333333333,0.29472,-0.220130333333333,-0.261641,-0.0302973333333333,-1.02951666666667,-0.161596,0.591753333333333,0.642466666666667,-0.151635333333333,0.0873683333333333,0.0593399466666667,0.462723333333333,-0.18861,0.242866666666667,0.375413333333333,-0.23558,0.455923333333333,-0.08763,-0.18343,0.155587,-0.322556666666667,0.121473333333333,0.137003333333333,-0.195954333333333,-0.146883333333333,0.434973333333333,0.355973,-0.23963
"Tradition",-0.0584173333333333,-0.083008,0.0464633333333333,-0.1079695,-0.114323333333333,-0.256159333333333,0.184846,0.423045666666667,0.153673333333333,-1.23567333333333,-0.116193333333333,-0.0590913333333333,-0.22585,-0.0996466666666666,-0.17802,-0.0737833333333333,0.127793333333333,0.121953333333333,0.00353000000000001,-0.191090333333333,0.272822666666667,-0.188888333333333,0.135367333333333,0.228396666666667,0.0348833333333333,-0.205663333333333,-0.253363333333333,-0.0310496666666666,0.0494033333333333,0.290456666666667,0.215192666666667,0.285432666666667,-0.334604,-0.179861666666667,-0.550653333333333,0.172028,0.232963333333333,-0.302306666666667,0.08992,0.062446,0.242406666666667,-0.166031,-0.05831,-0.429036666666667,-0.325273333333333,0.379433333333333,0.406523333333333,-0.106637333333333,0.35286,0.1189218,0.19675,-0.170921333333333,0.0198633333333333,0.120241333333333,-0.290776666666667,-0.0924266666666667,-0.124744233333333,-0.0618833333333333,-0.0349666666666667,0.190799,0.464916666666667,-0.0857796666666667,0.408925666666667,-0.0185370666666667,-0.251913333333333,-0.444886666666667,0.0477983333333333,0.28224,0.17573,0.469353333333333,-0.183379,-0.46798,-0.234306666666667,0.0891433333333333,0.073697,-0.0436566666666667,0.0674936666666667,0.0878916666666667,-0.0180273333333333,-0.00562366666666667,-0.0802733333333333,0.291663333333333,-0.0746533333333333,-0.132172666666667,0.203036666666667,0.312753333333333,0.195636666666667,-0.23242,0.0725263333333333,0.191193333333333,-0.136940666666667,-0.262131666666667,-0.080676,0.166676666666667,0.288256666666667,-0.454296,0.378716666666667,-0.08036,-0.0576303333333333,0.0699666666666667,0.398787666666667,0.22002,0.12715,-0.550006666666667,-0.0381143333333333,0.332553333333333,0.249016666666667,0.144472666666667,-0.191216666666667,-0.06698,0.242126666666667,-0.0523566666666667,-0.0063,-0.0455366666666667,0.06131,-0.288250033333333,-0.02392206,-0.165314,-0.0760216666666667,-0.299371666666667,0.163873,0.188896666666667,0.117261333333333,0.134693333333333,-0.05793,-0.128102,-0.029417,0.44666,0.125873666666667,0.25078,0.017166,-0.118572666666667,0.20346,-0.195151666666667,0.0377493333333333,0.0674116666666667,0.174550333333333,-0.32698,-0.0462090666666667,-0.008671,0.198286666666667,0.0940616666666667,0.226505333333333,-0.401516666666667,0.182863333333333,-0.26332,-0.420459333333333,-0.09711,-0.126021,0.0355666666666667,-0.013834,0.414873333333333,0.195382,-0.0550263333333333,0.08739,-0.05771,-0.292570666666667,-0.0263827333333333,0.20834,-0.182053,0.461226666666667,0.114883333333333,-0.203742493666667,0.0950463333333333,-0.174853333333333,0.07463,0.17342,0.083718,-0.245867666666667,-0.277921,-0.124601,-0.090877,-0.399344666666667,0.36855,0.0842966666666667,0.161272666666667,0.0605593,0.27034,-0.0601957,-0.10254,-0.0872966666666667,0.136756666666667,0.448026666666667,0.08903,0.213306666666667,-0.127675,-0.273283333333333,0.329162,-0.06684,-0.167966666666667,-0.0679443333333333,-0.429980666666667,0.0894933333333333,0.319086666666667,-0.0837686333333333,-0.381983333333333,-0.290486666666667,0.145609333333333,-0.004096,-0.193033333333333,0.505806666666667,-0.00460766666666667,0.290926666666667,0.095893,0.56283,-0.178001333333333,0.050869,0.416653333333333,-0.115139333333333,0.0288666666666667,-0.0914653333333333,0.268313333333333,-0.00367333333333334,0.0702103333333333,-0.176886666666667,0.019981,0.0809363333333333,0.0119826666666667,-0.236061566666667,0.05712,-0.257635333333333,-0.0689023333333333,0.186056666666667,-0.0828613333333333,-0.128443,-0.260923333333333,0.0235023333333333,0.74431,0.433804333333333,0.212596666666667,-0.241833333333333,-0.111349,0.20248,0.13463,0.0279666666666666,-0.277093333333333,0.144569,-0.53734,-0.29924,0.283056333333333,-0.148511666666667,0.22737,0.40003,0.196582,-0.423216666666667,0.403336666666667,-0.682926666666667,0.0536655,0.0155966666666667,0.0824296666666667,0.155956666666667,0.110603666666667,0.28503,0.028679,0.180103333333333,0.0910617333333333,0.170625666666667,0.106841666666667,0.146746,-0.122448333333333,0.02536,-0.148336666666667,0.327546666666667,-0.083083,-0.0898936666666667,0.201006666666667,-0.27032,0.091633,0.25847,-0.352666666666667,-0.00881699999999999,-0.0721556666666667,0.38839,0.029178,0.101061,-0.0344653333333333,-1.53256666666667,-0.02532,0.54264,0.0210503333333333,0.334823333333333,-0.25266,-0.313006666666667,0.0909633666666667,0.254127666666667,0.0840833333333333,-0.0200633333333333,-0.0468456666666667,0.36078,-0.0304933333333333,0.122124,-0.0755866666666667,-0.207348333333333,0.128596666666667,0.0286383333333333,0.023087,-0.186573333333333,0.00601523333333333,0.1883,-0.0459963333333333
"Conformity",0.245726666666667,-0.242387666666667,0.223513333333333,-0.0965912666666667,0.246432,0.0547106,0.17396,-0.399266666666667,-0.11532,-1.46323333333333,-0.222474333333333,0.0898166666666667,-0.389163333333333,0.0551836666666667,0.1854459,0.133280366666667,-0.245645333333333,0.202476666666667,-0.0493816666666667,-0.32679,0.114336666666667,0.07731,0.09914,-0.088782,-0.354776666666667,0.183383333333333,-0.0202026666666667,-0.172683333333333,0.112943333333333,0.0593883333333333,0.0758716666666667,0.028121,-0.0391172,-0.28047,-0.351901666666667,0.06497,-0.021289,-0.003812,-0.27622,-0.124610666666667,0.313245333333333,-0.00454333333333332,-0.0635466666666667,-0.320493333333333,-0.197830633333333,0.222892333333333,-0.07831,0.178523333333333,0.00153856666666666,0.292283333333333,0.09055,-0.0745706666666667,-0.334686666666667,-0.172199,-0.00885366666666668,0.120502966666667,-0.329272333333333,-0.0275566666666667,0.241680666666667,0.088307,0.0713166666666667,-0.121887333333333,0.0413266666666667,0.054093,-0.274206666666667,-0.225656666666667,0.0817833333333333,-0.19369,0.119981866666667,0.447453333333333,-0.0524566666666667,-0.154863666666667,0.108117333333333,-0.0863413333333333,0.200467,0.331993333333333,-0.221205,0.268219,-0.0471086666666667,-0.281320266666667,-0.226118666666667,0.0272633333333333,0.017335,0.0979772333333333,0.366813333333333,0.0358073333333333,-0.0525166666666667,-0.206794666666667,-0.145207333333333,0.144692666666667,-0.49025,-0.0421663333333333,-0.179283333333333,0.0218896666666666,-0.0175373666666667,0.0318785,-0.0460113333333333,-0.110526666666667,-0.070549,0.06202,0.0888833333333333,-0.198,-0.22864,-0.0256453333333333,-0.140283333333333,0.347896666666667,-0.511756666666667,0.1896821,0.218556666666667,-0.341693333333333,0.31848,0.191406666666667,0.0678433333333333,0.164316666666667,0.22742,-0.142646666666667,0.285016666666667,-0.0182633333333333,-0.177950873333333,-0.0740933333333333,-0.043662,0.0763233333333333,0.0858666666666667,0.0304166666666667,-0.176136,-0.0857695666666667,-0.1485825,0.0414606666666667,0.127381333333333,-0.0275833333333333,0.0818096666666667,-0.34732,0.21601,-0.062704,-0.312131666666667,0.142825666666667,-0.247977,-0.415473333333333,-0.00621399999999999,0.198275,-0.044995,0.295460333333333,0.1225,-0.34139,0.064449,-0.434066333333333,-0.0593588333333333,-0.188924,-0.0994346666666667,-0.243717333333333,-0.228712666666667,0.0195666666666667,0.238697333333333,0.121685,0.0930926666666667,0.167474333333333,-0.0348666666666667,0.10904,-0.201459333333333,0.146599666666667,0.366493333333333,-0.114566333333333,-0.153787666666667,-0.107355666666667,-0.01849,-0.002115,-0.058811,0.069329,-0.107426,0.0894996666666667,0.330033333333333,0.00271999999999997,-0.247885666666667,-0.216507353333333,0.193014333333333,-0.0164286666666667,0.13159,0.332579,0.178223333333333,0.139678,-0.123241333333333,-0.575603333333333,0.0440849333333333,-0.044793,-0.212907066666667,0.342998666666667,-0.0313743333333333,-0.0186176666666667,-0.130373333333333,0.0231333333333333,-0.13249,-0.728516666666667,0.207654,0.192847333333333,-0.041563,-0.252805,-0.036171,0.156333666666667,0.204465333333333,-0.209,0.158388333333333,-0.15014,-0.000759999999999997,0.0893573333333333,0.381463333333333,0.38665,0.297316666666667,-0.03700661,0.183776666666667,0.103877333333333,0.107426666666667,0.265119,-0.111381333333333,0.127499666666667,-0.070165,-0.329896666666667,-0.0347416666666667,0.142745666666667,0.114406666666667,-0.268753333333333,-0.514786666666667,-0.147207333333333,-0.120783333333333,0.20631,0.026419,0.0470933333333333,-0.0711113333333333,0.38631,0.364463333333333,-0.0633333333333333,-0.43926,-0.22169,0.212661,0.07224,-0.00860199999999999,-0.136255,-0.131316666666667,-0.45643,-0.00819333333333333,0.0558933333333333,-0.00878166666666667,0.417376666666667,0.540633333333333,0.53552,-0.313526666666667,0.169248266666667,-0.0424960333333333,0.0300966666666667,0.0448033333333333,-0.0690935666666667,-0.110969666666667,0.0562853333333333,0.20628,0.194760333333333,-0.2039413,0.153276765,-0.112218666666667,0.0210743333333333,0.090184,0.3564,-0.0518533333333333,-0.267566666666667,0.0421156666666667,0.135655666666667,0.0128686666666667,-0.048591,0.0563113333333333,0.15425,0.0221410666666667,0.000205666666666663,0.32175,-0.113824,-0.270915,0.447726666666667,-0.0645473333333333,0.133912333333333,-1.3146,0.265425666666667,0.90466,-0.0952976666666667,0.323843333333333,-0.179426666666667,0.00997166666666668,-0.053921,0.403133333333333,-0.220875666666667,0.234716666666667,-0.0952456666666667,0.259573333333333,0.0255066666666667,-0.301885333333333,0.0788633333333333,0.354928193333333,-0.091075,0.0940223333333333,0.210208666666667,-0.420413333333333,0.0195386666666667,0.298834,-0.3362154
"Security",0.231806666666667,-0.026794,-0.170676166666667,-0.04619,0.0863666666666667,-0.0339153333333333,0.32154,0.58761,0.0427713333333333,-2.1824,0.108379666666667,0.0638026666666667,0.110243333333333,-0.198973666666667,-0.56838,0.395666666666667,0.050816,0.170227666666667,-0.422563333333333,-0.184812466666667,0.05312,-0.00498999999999999,0.296916666666667,-0.287765666666667,-0.308776666666667,0.374913333333333,-0.183472333333333,0.314774333333333,-0.216169,0.417960333333333,0.294474333333333,-0.0341409333333333,-0.176166666666667,-0.0797066666666667,-0.286851333333333,-0.0660433333333333,-0.0713566666666667,-0.03187,0.0564,-0.591056666666667,-0.0485593333333333,-0.195116666666667,0.438173333333333,0.066109,-0.46204,0.1430333,-0.189553666666667,0.0673966666666667,-0.224360333333333,-0.06845,-0.3841,-0.192524666666667,-0.24501,0.05709,0.247445,0.25775,-0.0217292,-0.21292,-0.314163333333333,-0.0765093333333333,-0.138453333333333,0.113091333333333,-0.0349243333333333,0.0354393333333333,-0.426953333333333,0.00777099999999999,-0.045627,0.035247,0.348653333333333,-0.217022333333333,0.022984,-0.29614,0.250184,-0.484566666666667,-0.0813246666666666,0.420006666666667,-0.29081,0.153387333333333,-0.053458,-0.183206333333333,-0.0118783333333333,-0.148700333333333,-0.01091,0.170986666666667,0.496513333333333,-0.032586,-0.0818033333333333,0.195124333333333,-0.651893333333333,-0.564636666666667,-0.603176666666667,0.393531666666667,-0.286983333333333,0.589126666666667,-0.179558,0.152786666666667,-0.259789666666667,0.0359833333333333,0.1029,-0.251071,0.111506666666667,-0.089881,0.17152,-0.289065333333333,0.290193333333333,-0.0932613333333333,-0.147455433333333,0.219103333333333,-0.601816666666667,-0.212885,0.251485,-0.253116666666667,-0.30499,-0.172947666666667,0.0412417333333333,0.374123333333333,0.745526666666667,0.06237,-0.051222,-0.17364,-0.023243,0.118615133333333,0.14465,-0.0604733333333333,-0.03493,-0.5078,0.0769366666666667,-0.196235333333333,0.0622386666666667,0.289751333333333,0.226993333333333,-0.00395766666666667,0.23757,-0.077843,-0.0495873333333333,-0.250146666666667,0.09618,-0.145189,0.373719,0.158153333333333,-0.146418666666667,0.183015,0.486063,-0.326279,-0.305953,0.113892,0.258466,0.0116333333333333,-0.255717,-0.036447,0.647093333333333,-0.336736666666667,0.399823333333333,-0.312437,0.133383666666667,-0.190423333333333,-0.0319646666666667,0.0031384,0.10433,-0.187357,0.259135333333333,-0.20328,-0.0870529666666667,-0.249446666666667,-0.1205214,-0.40059,0.0659066666666667,0.05274,-0.128617666666667,0.302360333333333,0.0144896666666667,0.133926666666667,-0.0551293333333333,0.485186666666667,-0.0685066666666667,-0.229353333333333,0.268886666666667,-0.0618833333333333,-0.017458,-0.26503,-0.04382,-0.352483333333333,0.0253723333333333,0.0286366666666667,-0.47915,0.055105,-0.194594,-0.0843743333333333,0.314649333333333,0.137842333333333,0.221600666666667,-0.369976333333333,-0.396596666666667,0.108933333333333,-0.139633,-0.184403333333333,0.0503833333333333,-0.051613,0.54298,0.310343333333333,0.184378,0.682313333333333,0.332023333333333,-0.0849333333333333,0.323668,0.0836733333333333,0.190203333333333,-0.72169,0.326843333333333,0.239523333333333,0.326693333333333,0.0348693666666667,-0.23223,-0.0461041666666666,0.323286666666667,-0.19775,-0.304207,0.361543333333333,0.0772720666666667,0.0401366666666667,0.127107333333333,-0.150084,0.271713333333333,0.29402003,0.446973666666667,-0.132003333333333,-0.02216,-0.199503333333333,0.203976666666667,-0.036471,-0.0411390666666667,-0.0563179,0.217848666666667,-0.122604,0.00494666666666666,-0.167,-0.100933,-0.00708133333333333,0.355013333333333,0.30743,0.136424,0.0400026666666667,0.88291,-0.034563,-0.408376666666667,-0.0779126666666667,0.0949636666666667,-0.91243,0.0278683333333333,0.232883666666667,-0.108877666666667,0.245869333333333,0.579313333333333,-0.155008333333333,0.298483333333333,0.110976666666667,-0.0348586666666667,-0.0151666666666667,0.0914,0.290422,-0.0818536666666667,-0.347371333333333,0.35443,0.0758866666666667,-0.0439592,0.0817466666666666,-0.3891,0.0595066666666667,-0.043507,-0.148733333333333,0.25913,-0.167966666666667,-0.451383333333333,0.270643333333333,-0.191853333333333,0.0348366666666667,-2.40373333333333,0.288953333333333,0.649783333333333,0.347353333333333,0.254291666666667,-0.016217,0.153421333333333,0.176339,-0.104706666666667,-0.0806873333333333,0.465026666666667,-0.128973333333333,0.456956666666667,-0.273123333333333,0.14623,-0.0675766666666667,-0.179356333333333,-0.398373333333333,0.0544062,0.637253333333333,-0.32597,0.0222176666666667,-0.39506,-0.013975
